{"_wandb":{"runtime":3},"parameters/graph_1layer1.1.bn1.bias":{"_type":"histogram","values":[1,0,1,0,0,0,0,0,1,0,1,0,0,1,0,1,0,3,1,2,2,0,1,0,1,1,1,0,2,1,1,0,1,1,1,0,3,3,4,0,1,0,3,1,3,2,0,2,2,2,1,0,2,1,1,2,1,1,1,0,1,0,0,2],"bins":[-0.5074769258499146,-0.4959099590778351,-0.484343022108078,-0.47277605533599854,-0.46120908856391907,-0.449642151594162,-0.4380751848220825,-0.42650821805000305,-0.41494128108024597,-0.4033743143081665,-0.39180734753608704,-0.38024041056632996,-0.3686734437942505,-0.357106477022171,-0.34553954005241394,-0.3339725732803345,-0.3224056363105774,-0.3108386695384979,-0.29927170276641846,-0.2877047657966614,-0.2761377990245819,-0.26457083225250244,-0.25300389528274536,-0.2414369285106659,-0.22986996173858643,-0.21830300986766815,-0.20673605799674988,-0.1951691061258316,-0.18360213935375214,-0.17203518748283386,-0.1604682356119156,-0.14890126883983612,-0.13733431696891785,-0.12576736509799957,-0.1142004057765007,-0.10263344645500183,-0.09106649458408356,-0.07949953526258469,-0.06793257594108582,-0.05636562034487724,-0.04479866474866867,-0.0332317091524601,-0.021664751693606377,-0.01009779516607523,0.0014691613614559174,0.013036117888987064,0.02460307441651821,0.03617003187537193,0.047736987471580505,0.05930394306778908,0.07087089866399765,0.08243785798549652,0.0940048098564148,0.10557176917791367,0.11713872849941254,0.1287056803703308,0.14027264714241028,0.15183959901332855,0.16340655088424683,0.1749735027551651,0.18654046952724457,0.19810742139816284,0.20967437326908112,0.22124134004116058,0.23280829191207886]},"parameters/graph_1layer2.1.bn2.weight":{"values":[1,0,0,0,0,1,3,0,3,4,4,4,5,5,4,3,3,8,2,8,2,4,3,3,4,3,3,1,4,1,5,2,2,0,0,4,1,5,1,2,1,1,3,3,1,1,0,1,1,0,0,3,0,0,0,1,1,0,1,1,0,0,0,1],"bins":[0.022881288081407547,0.032738152891397476,0.042595021426677704,0.05245188623666763,0.06230875104665756,0.07216561585664749,0.08202248066663742,0.09187934547662735,0.10173621773719788,0.1115930825471878,0.12144994735717773,0.13130681216716766,0.1411636769771576,0.15102054178714752,0.16087740659713745,0.17073427140712738,0.1805911362171173,0.19044800102710724,0.20030486583709717,0.2101617306470871,0.22001859545707703,0.22987547516822815,0.23973233997821808,0.249589204788208,0.25944605469703674,0.26930293440818787,0.2791597843170166,0.2890166640281677,0.29887354373931885,0.3087303936481476,0.3185872733592987,0.32844412326812744,0.3383009731769562,0.3481578528881073,0.35801470279693604,0.36787158250808716,0.3777284324169159,0.387585312128067,0.39744216203689575,0.4072990417480469,0.4171558916568756,0.42701277136802673,0.43686962127685547,0.4467265009880066,0.4565833508968353,0.46644023060798645,0.4762970805168152,0.4861539602279663,0.49601083993911743,0.5058677196502686,0.5157245397567749,0.525581419467926,0.5354382991790771,0.5452951788902283,0.5551519989967346,0.5650088787078857,0.5748657584190369,0.584722638130188,0.5945794582366943,0.6044363379478455,0.6142932176589966,0.6241500973701477,0.634006917476654,0.6438637971878052,0.6537206768989563],"_type":"histogram"},"parameters/graph_1layer1.1.conv2.weight":{"values":[1,3,0,0,0,2,3,1,2,3,5,6,6,12,11,12,21,24,40,48,60,80,100,141,179,259,383,590,818,1196,1769,2489,3225,3826,4326,4135,3622,2802,2074,1420,950,682,453,335,205,160,88,88,65,35,33,13,19,11,4,6,4,3,4,3,1,2,4,2],"bins":[-0.38302820920944214,-0.37203845381736755,-0.36104869842529297,-0.350058913230896,-0.3390691578388214,-0.3280794024467468,-0.31708961725234985,-0.30609986186027527,-0.2951101064682007,-0.2841203510761261,-0.2731305956840515,-0.26214081048965454,-0.25115105509757996,-0.24016129970550537,-0.2291715294122696,-0.2181817591190338,-0.20719200372695923,-0.19620224833488464,-0.18521247804164886,-0.17422270774841309,-0.1632329523563385,-0.15224319696426392,-0.14125342667102814,-0.13026365637779236,-0.11927390098571777,-0.10828413814306259,-0.09729437530040741,-0.08630461245775223,-0.07531484961509705,-0.06432508677244186,-0.05333532392978668,-0.0423455610871315,-0.03135579824447632,-0.020366035401821136,-0.009376272559165955,0.0016134902834892273,0.01260325312614441,0.02359301596879959,0.03458277881145477,0.045572541654109955,0.05656230449676514,0.06755206733942032,0.0785418301820755,0.08953159302473068,0.10052135586738586,0.11151111871004105,0.12250088155269623,0.133490651845932,0.1444804072380066,0.15547016263008118,0.16645993292331696,0.17744970321655273,0.18843945860862732,0.1994292140007019,0.21041898429393768,0.22140875458717346,0.23239850997924805,0.24338826537132263,0.2543780207633972,0.2653678059577942,0.2763575613498688,0.28734731674194336,0.29833710193634033,0.3093268573284149,0.3203166127204895],"_type":"histogram"},"parameters/graph_1layer1.1.bn2.weight":{"bins":[0.058772724121809006,0.07046904414892197,0.08216536045074463,0.09386168420314789,0.10555800050497055,0.11725431680679321,0.12895064055919647,0.14064696431159973,0.1523432731628418,0.16403959691524506,0.17573592066764832,0.18743222951889038,0.19912855327129364,0.2108248770236969,0.22252118587493896,0.23421750962734222,0.24591383337974548,0.25761014223098755,0.269306480884552,0.28100278973579407,0.29269909858703613,0.3043954372406006,0.31609174609184265,0.3277880549430847,0.33948439359664917,0.35118070244789124,0.3628770112991333,0.37457334995269775,0.3862696588039398,0.3979659676551819,0.40966230630874634,0.4213586151599884,0.43305495381355286,0.4447512626647949,0.4564476013183594,0.46814391016960144,0.4798402190208435,0.49153655767440796,0.5032328963279724,0.5149291753768921,0.5266255140304565,0.538321852684021,0.5500181317329407,0.5617144703865051,0.5734108090400696,0.5851070880889893,0.5968034267425537,0.6084997653961182,0.6201960444450378,0.6318923830986023,0.6435887217521667,0.6552850008010864,0.6669813394546509,0.6786776781082153,0.690373957157135,0.7020702958106995,0.7137666344642639,0.7254629135131836,0.737159252166748,0.7488555908203125,0.7605518698692322,0.7722482085227966,0.7839445471763611,0.7956408262252808,0.8073371648788452],"_type":"histogram","values":[1,0,0,0,0,0,1,0,1,0,2,3,5,2,4,0,1,2,0,0,1,2,1,2,0,2,3,1,0,0,0,2,1,1,3,1,1,1,1,1,1,2,2,2,0,1,1,1,2,1,0,0,1,0,1,2,0,0,0,0,0,0,0,1]},"parameters/graph_1layer4.0.downsample.1.weight":{"_type":"histogram","values":[1,1,0,0,0,0,0,0,0,1,1,1,0,2,2,7,3,5,3,6,8,5,6,10,13,20,18,13,18,16,19,20,22,24,31,27,17,21,20,16,21,12,17,16,8,12,8,8,9,3,8,3,4,2,1,0,0,1,0,0,0,0,0,2],"bins":[-0.05320146679878235,-0.04430884122848511,-0.03541621193289757,-0.026523584499955177,-0.017630957067012787,-0.008738329634070396,0.00015429779887199402,0.009046925231814384,0.017939552664756775,0.026832180097699165,0.035724807530641556,0.044617436826229095,0.05351006239652634,0.06240268796682358,0.07129532098770142,0.08018794655799866,0.0890805721282959,0.09797319769859314,0.10686582326889038,0.11575845628976822,0.12465108186006546,0.1335437148809433,0.14243634045124054,0.15132896602153778,0.16022159159183502,0.16911421716213226,0.1780068427324295,0.18689946830272675,0.19579210877418518,0.20468473434448242,0.21357735991477966,0.2224699854850769,0.23136264085769653,0.24025526642799377,0.24914789199829102,0.25804051756858826,0.2669331431388855,0.27582576870918274,0.28471839427948,0.2936110198497772,0.30250364542007446,0.3113963007926941,0.32028892636299133,0.3291815519332886,0.3380741775035858,0.34696680307388306,0.3558594286441803,0.36475205421447754,0.3736446797847748,0.382537305355072,0.39142993092536926,0.4003225564956665,0.40921518206596375,0.418107807636261,0.4270004332065582,0.43589305877685547,0.4447857141494751,0.45367833971977234,0.4625709652900696,0.4714635908603668,0.48035621643066406,0.4892488420009613,0.49814146757125854,0.5070340633392334,0.515926718711853]},"parameters/graph_1layer2.0.bn2.weight":{"_type":"histogram","values":[3,0,3,0,1,5,1,1,3,3,3,2,0,1,1,2,4,3,1,2,1,4,3,3,5,2,6,2,7,8,1,4,3,1,1,2,0,4,3,2,5,0,2,1,3,1,6,2,0,1,1,0,1,0,0,0,1,0,0,0,0,1,0,2],"bins":[0.10756316781044006,0.11560053378343582,0.12363789975643158,0.13167527318000793,0.1397126317024231,0.14775000512599945,0.1557873785495758,0.16382473707199097,0.17186211049556732,0.17989948391914368,0.18793684244155884,0.1959742158651352,0.20401158928871155,0.2120489478111267,0.22008632123470306,0.22812367975711823,0.23616105318069458,0.24419842660427094,0.2522358000278473,0.26027315855026245,0.2683105170726776,0.27634790539741516,0.2843852639198303,0.2924226224422455,0.30045998096466064,0.3084973692893982,0.31653472781181335,0.3245720863342285,0.33260947465896606,0.3406468331813812,0.3486841917037964,0.35672158002853394,0.3647589683532715,0.37279632687568665,0.3808337152004242,0.38887107372283936,0.3969084322452545,0.40494582056999207,0.4129831790924072,0.4210205376148224,0.42905789613723755,0.4370952844619751,0.44513264298439026,0.4531700015068054,0.46120738983154297,0.46924474835395813,0.4772821068763733,0.48531949520111084,0.493356853723526,0.5013942122459412,0.5094316005706787,0.5174689292907715,0.525506317615509,0.5335437059402466,0.5415810346603394,0.5496184229850769,0.5576558113098145,0.5656931400299072,0.5737305283546448,0.5817679166793823,0.5898052453994751,0.5978426337242126,0.6058800220489502,0.613917350769043,0.6219547390937805]},"parameters/graph_1layer1.0.bn2.weight":{"_type":"histogram","values":[2,1,1,0,1,1,0,0,0,1,0,2,3,1,1,2,2,4,3,5,0,1,2,0,0,0,4,0,1,1,0,0,1,1,0,0,2,1,0,1,2,1,2,3,3,2,0,2,0,0,0,0,1,0,0,0,1,0,0,0,0,0,0,2],"bins":[0.10157863795757294,0.10979080200195312,0.11800297349691391,0.1262151449918747,0.13442730903625488,0.14263947308063507,0.15085163712501526,0.15906380116939545,0.16727596521377563,0.17548814415931702,0.1837003082036972,0.1919124722480774,0.20012463629245758,0.20833680033683777,0.21654897928237915,0.22476114332675934,0.23297330737113953,0.24118547141551971,0.2493976354598999,0.2576098144054413,0.2658219635486603,0.27403414249420166,0.28224632143974304,0.29045847058296204,0.2986706495285034,0.3068827986717224,0.3150949776172638,0.3233071565628052,0.33151930570602417,0.33973148465156555,0.34794363379478455,0.3561558127403259,0.3643679916858673,0.3725801706314087,0.3807923197746277,0.38900449872016907,0.39721664786338806,0.40542882680892944,0.4136410057544708,0.4218531548976898,0.4300653338432312,0.4382774829864502,0.4464896619319916,0.45470184087753296,0.46291399002075195,0.47112616896629333,0.47933831810951233,0.4875504970550537,0.4957626461982727,0.5039748549461365,0.5121870040893555,0.5203991532325745,0.5286113023757935,0.5368235111236572,0.5450356602668762,0.5532478094100952,0.561460018157959,0.569672167301178,0.577884316444397,0.5860965251922607,0.5943086743354797,0.6025208234786987,0.6107329726219177,0.6189451813697815,0.6271573305130005]},"parameters/graph_1layer3.0.downsample.0.weight":{"_type":"histogram","values":[4,1,2,2,2,1,1,2,5,3,12,4,14,11,28,25,31,41,49,86,120,171,280,472,610,858,1290,1694,2287,2708,3253,3285,3382,2902,2394,1906,1529,1024,661,526,320,216,157,107,74,62,39,32,12,16,10,12,7,3,6,8,1,0,1,1,2,1,1,4],"bins":[-0.2769942581653595,-0.2683212459087372,-0.25964823365211487,-0.25097522139549255,-0.24230219423770905,-0.23362918198108673,-0.22495616972446442,-0.2162831574678421,-0.2076101303100586,-0.19893711805343628,-0.19026410579681396,-0.18159109354019165,-0.17291808128356934,-0.16424506902694702,-0.1555720418691635,-0.1468990296125412,-0.13822601735591888,-0.12955300509929657,-0.12087998539209366,-0.11220697313547134,-0.10353395342826843,-0.09486094117164612,-0.0861879289150238,-0.07751490920782089,-0.06884189695119858,-0.060168880969285965,-0.05149586498737335,-0.04282285273075104,-0.034149836748838425,-0.025476820766925812,-0.016803806647658348,-0.00813079159706831,0.0005422234535217285,0.009215238504111767,0.017888253554701805,0.02656126767396927,0.03523428365588188,0.043907299637794495,0.05258031189441681,0.06125332787632942,0.06992634385824203,0.07859935611486435,0.08727237582206726,0.09594538807868958,0.10461840033531189,0.1132914200425148,0.12196443229913712,0.13063745200634003,0.13931046426296234,0.14798347651958466,0.15665648877620697,0.16532951593399048,0.1740025281906128,0.1826755404472351,0.19134855270385742,0.20002156496047974,0.20869457721710205,0.21736760437488556,0.22604061663150787,0.2347136288881302,0.2433866411447525,0.252059668302536,0.2607326805591583,0.26940569281578064,0.27807870507240295]},"parameters/graph_1layer2.0.bn1.bias":{"_type":"histogram","values":[1,0,0,0,0,0,1,4,1,0,3,1,3,3,4,13,6,14,11,6,11,13,8,3,4,2,2,1,1,0,0,0,1,0,0,1,1,0,0,2,1,0,0,1,2,0,0,1,0,0,0,0,1,0,0,0,0,0,0,0,0,0,0,1],"bins":[-0.35933905839920044,-0.3465649485588074,-0.3337908685207367,-0.32101675868034363,-0.30824264883995056,-0.2954685688018799,-0.2826944589614868,-0.26992034912109375,-0.2571462392807007,-0.24437215924263,-0.23159804940223694,-0.21882395446300507,-0.2060498595237732,-0.19327574968338013,-0.18050165474414825,-0.1677275449037552,-0.15495344996452332,-0.14217935502529144,-0.12940524518489838,-0.1166311502456665,-0.10385704785585403,-0.09108294546604156,-0.07830885052680969,-0.06553474813699722,-0.05276064574718475,-0.039986543357372284,-0.027212444692850113,-0.014438344165682793,-0.0016642436385154724,0.011109856888651848,0.023883957415819168,0.03665805608034134,0.04943215847015381,0.06220626085996628,0.07498036324977875,0.08775445818901062,0.10052856057882309,0.11330266296863556,0.12607675790786743,0.1388508677482605,0.15162496268749237,0.16439905762672424,0.1771731674671173,0.18994726240634918,0.20272135734558105,0.21549546718597412,0.228269562125206,0.24104367196559906,0.25381776690483093,0.266591876745224,0.2793659567832947,0.29214006662368774,0.3049141764640808,0.3176882565021515,0.33046236634254456,0.3432364761829376,0.3560105562210083,0.36878466606140137,0.38155877590179443,0.3943328857421875,0.4071069657802582,0.41988107562065125,0.4326551854610443,0.445429265499115,0.45820337533950806]},"test_accuracy":0.8528957528957529,"parameters/graph_1layer1.1.conv1.weight":{"values":[1,1,2,0,2,1,2,2,4,3,4,6,4,3,8,14,11,20,33,35,68,94,138,224,380,579,1094,2019,3803,6254,7435,6299,3958,2045,1055,515,288,171,83,60,42,28,20,11,9,4,5,5,3,1,3,1,4,1,2,3,0,0,1,1,0,0,0,2],"bins":[-0.6014944314956665,-0.58183354139328,-0.5621726512908936,-0.5425117015838623,-0.5228508114814758,-0.5031899213790894,-0.4835290014743805,-0.46386808156967163,-0.44420719146728516,-0.4245463013648987,-0.4048853814601898,-0.38522446155548096,-0.3655635714530945,-0.345902681350708,-0.32624176144599915,-0.3065808415412903,-0.2869199514389038,-0.26725906133651733,-0.24759814143180847,-0.2279372364282608,-0.20827633142471313,-0.18861542642116547,-0.1689545214176178,-0.14929361641407013,-0.12963271141052246,-0.10997180640697479,-0.09031090140342712,-0.07064999639987946,-0.05098909139633179,-0.03132818639278412,-0.01166728138923645,0.007993623614311218,0.02765446901321411,0.04731537401676178,0.06697627902030945,0.08663718402385712,0.10629808902740479,0.12595899403095245,0.14561989903450012,0.1652808040380478,0.18494170904159546,0.20460261404514313,0.2242635190486908,0.24392442405223846,0.26358532905578613,0.2832462191581726,0.30290713906288147,0.32256805896759033,0.3422289490699768,0.3618898391723633,0.38155075907707214,0.401211678981781,0.4208725690841675,0.44053345918655396,0.4601943790912628,0.4798552989959717,0.49951618909835815,0.5191770792007446,0.5388380289077759,0.5584989190101624,0.5781598091125488,0.5978206992149353,0.6174815893173218,0.637142539024353,0.6568034291267395],"_type":"histogram"},"parameters/graph_1layer4.0.bn1.bias":{"_type":"histogram","values":[3,1,0,0,1,2,2,0,2,5,8,9,13,8,14,10,18,21,13,21,24,25,32,28,26,28,27,23,28,19,25,14,17,7,8,5,9,2,2,3,1,2,0,0,1,1,2,0,0,1,0,0,0,0,0,0,0,0,0,0,0,0,0,1],"bins":[-0.48290303349494934,-0.4728970527648926,-0.4628911018371582,-0.45288512110710144,-0.4428791403770447,-0.4328731894493103,-0.42286720871925354,-0.41286125779151917,-0.4028552770614624,-0.39284929633140564,-0.38284334540367126,-0.3728373646736145,-0.3628314137458801,-0.35282543301582336,-0.3428194522857666,-0.3328135013580322,-0.32280752062797546,-0.3128015398979187,-0.3027955889701843,-0.29278960824012756,-0.2827836275100708,-0.2727776765823364,-0.26277169585227966,-0.2527657449245453,-0.24275976419448853,-0.23275379836559296,-0.2227478325366974,-0.21274185180664062,-0.20273588597774506,-0.1927299201488495,-0.18272393941879272,-0.17271797358989716,-0.16271203756332397,-0.1527060717344284,-0.14270010590553284,-0.13269412517547607,-0.1226881593465805,-0.11268219351768494,-0.10267622023820877,-0.0926702469587326,-0.08266428112983704,-0.07265831530094147,-0.0626523420214653,-0.052646372467279434,-0.04264040291309357,-0.0326344333589077,-0.022628463804721832,-0.012622494250535965,-0.0026165246963500977,0.00738944485783577,0.017395414412021637,0.027401383966207504,0.03740735352039337,0.04741332307457924,0.057419292628765106,0.06742526590824127,0.07743123173713684,0.08743719756603241,0.09744317084550858,0.10744914412498474,0.11745510995388031,0.12746107578277588,0.13746705651283264,0.1474730223417282,0.15747898817062378]},"parameters/graph_1layer3.0.bn2.bias":{"_type":"histogram","values":[1,0,0,0,0,0,0,1,0,0,1,1,0,2,0,0,2,0,1,0,2,2,1,1,2,4,2,0,4,2,4,5,5,3,5,5,8,12,3,20,8,11,11,9,10,15,10,15,7,9,5,10,7,7,8,2,5,4,0,0,2,0,0,2],"bins":[-0.4014429450035095,-0.3930126130580902,-0.3845822811126709,-0.3761519193649292,-0.3677215874195099,-0.3592912554740906,-0.3508608937263489,-0.34243056178092957,-0.33400022983551025,-0.32556989789009094,-0.31713956594467163,-0.30870920419692993,-0.3002788722515106,-0.2918485403060913,-0.2834181785583496,-0.2749878466129303,-0.266557514667511,-0.2581271827220917,-0.24969683587551117,-0.24126648902893066,-0.23283615708351135,-0.22440582513809204,-0.21597547829151154,-0.20754513144493103,-0.19911479949951172,-0.1906844675540924,-0.1822541207075119,-0.1738237738609314,-0.16539344191551208,-0.15696310997009277,-0.14853276312351227,-0.14010241627693176,-0.13167209923267365,-0.12324175983667374,-0.11481142044067383,-0.10638108104467392,-0.09795074164867401,-0.0895204022526741,-0.0810900628566742,-0.07265972346067429,-0.06422938406467438,-0.05579904466867447,-0.04736870527267456,-0.03893836587667465,-0.030508026480674744,-0.022077687084674835,-0.013647347688674927,-0.005217008292675018,0.00321333110332489,0.011643670499324799,0.020074009895324707,0.028504349291324615,0.036934688687324524,0.04536502808332443,0.05379536747932434,0.06222570687532425,0.07065604627132416,0.07908638566732407,0.08751672506332397,0.09594706445932388,0.10437740385532379,0.1128077432513237,0.12123808264732361,0.12966841459274292,0.13809876143932343]},"parameters/graph_1layer3.1.bn1.weight":{"_type":"histogram","values":[3,1,1,1,5,4,3,3,5,9,6,10,9,10,8,8,8,8,6,13,10,10,9,8,9,5,8,4,8,4,5,5,7,0,9,4,1,3,2,8,4,3,2,1,0,0,2,0,1,1,0,0,0,0,0,1,0,0,0,0,0,0,0,1],"bins":[0.15010879933834076,0.15549033880233765,0.16087186336517334,0.16625340282917023,0.17163492739200592,0.1770164668560028,0.1823979914188385,0.1877795308828354,0.19316107034683228,0.19854259490966797,0.20392413437366486,0.20930565893650055,0.21468719840049744,0.22006872296333313,0.22545026242733002,0.2308317869901657,0.2362133264541626,0.24159486591815948,0.24697639048099518,0.25235792994499207,0.25773945450782776,0.26312097907066345,0.26850253343582153,0.2738840579986572,0.2792655825614929,0.284647136926651,0.2900286614894867,0.2954101860523224,0.3007917106151581,0.30617326498031616,0.31155478954315186,0.31693631410598755,0.32231786847114563,0.3276993930339813,0.3330809473991394,0.3384624719619751,0.3438439965248108,0.3492255210876465,0.35460707545280457,0.35998860001564026,0.36537012457847595,0.37075167894363403,0.3761332035064697,0.3815147280693054,0.3868962526321411,0.3922778069972992,0.3976593315601349,0.4030408561229706,0.40842241048812866,0.41380393505096436,0.41918545961380005,0.42456698417663574,0.4299485385417938,0.4353300631046295,0.4407115876674652,0.4460931122303009,0.451474666595459,0.4568561911582947,0.46223771572113037,0.46761927008628845,0.47300079464912415,0.47838231921195984,0.48376384377479553,0.4891453981399536,0.4945269227027893]},"parameters/graph_1layer3.1.bn1.bias":{"values":[1,0,0,0,0,2,0,1,2,1,3,2,1,0,2,1,3,1,4,1,7,2,9,2,11,8,4,6,8,14,7,12,16,15,8,11,14,13,13,9,8,12,7,4,4,0,1,1,1,0,0,0,1,0,1,1,0,0,0,0,0,0,0,1],"bins":[-0.6574329733848572,-0.6448524594306946,-0.632271945476532,-0.6196914315223694,-0.6071109175682068,-0.5945304036140442,-0.5819498896598816,-0.5693693161010742,-0.5567888021469116,-0.544208288192749,-0.5316277742385864,-0.5190472602844238,-0.5064667463302612,-0.49388623237609863,-0.48130571842193604,-0.46872520446777344,-0.45614469051361084,-0.44356414675712585,-0.43098363280296326,-0.41840311884880066,-0.40582260489463806,-0.39324209094047546,-0.38066157698631287,-0.3680810332298279,-0.3555005192756653,-0.3429200053215027,-0.3303394913673401,-0.3177589774131775,-0.3051784634590149,-0.2925979197025299,-0.2800174057483673,-0.2674368917942047,-0.2548564076423645,-0.2422758787870407,-0.22969534993171692,-0.21711483597755432,-0.20453432202339172,-0.19195379316806793,-0.17937327921390533,-0.16679276525974274,-0.15421223640441895,-0.14163172245025635,-0.12905120849609375,-0.11647068709135056,-0.10389016568660736,-0.09130965173244476,-0.07872913032770157,-0.06614861637353897,-0.053568094968795776,-0.04098757728934288,-0.028407057747244835,-0.01582653820514679,-0.0032460205256938934,0.009334498085081577,0.021915016695857048,0.03449553623795509,0.04707605391740799,0.059656571596860886,0.07223708927631378,0.08481761068105698,0.09739813208580017,0.10997864603996277,0.12255916744470596,0.13513968884944916,0.14772020280361176],"_type":"histogram"},"parameters/graph_1layer4.0.bn2.weight":{"values":[1,0,0,0,0,0,0,0,0,0,0,0,0,0,1,1,2,1,2,5,6,14,9,18,21,20,19,29,24,22,27,28,45,28,38,25,21,19,12,12,11,6,7,4,11,2,5,4,2,0,1,0,1,2,1,1,1,0,0,1,0,1,0,1],"bins":[0.09262075275182724,0.10251649469137192,0.1124122366309166,0.12230797857046127,0.13220371305942535,0.14209945499897003,0.1519951969385147,0.1618909388780594,0.17178668081760406,0.18168242275714874,0.19157816469669342,0.2014739066362381,0.21136964857578278,0.22126539051532745,0.23116113245487213,0.2410568743944168,0.2509526014328003,0.26084834337234497,0.27074408531188965,0.2806398272514343,0.290535569190979,0.3004313111305237,0.31032705307006836,0.32022279500961304,0.3301185369491577,0.3400142788887024,0.34991002082824707,0.35980576276779175,0.3697015047073364,0.3795972466468811,0.3894929885864258,0.39938873052597046,0.40928444266319275,0.4191801846027374,0.4290759265422821,0.4389716684818268,0.44886741042137146,0.45876315236091614,0.4686588943004608,0.4785546362400055,0.48845037817955017,0.49834612011909485,0.5082418322563171,0.5181375741958618,0.5280333161354065,0.5379290580749512,0.5478248000144958,0.5577205419540405,0.5676162838935852,0.5775120258331299,0.5874077677726746,0.5973035097122192,0.6071992516517639,0.6170949935913086,0.6269907355308533,0.636886477470398,0.6467822194099426,0.6566779613494873,0.666573703289032,0.6764694452285767,0.6863651871681213,0.696260929107666,0.7061566710472107,0.7160524129867554,0.7259481549263],"_type":"histogram"},"parameters/graph_1layer3.0.conv1.weight":{"bins":[-0.43953579664230347,-0.42562323808670044,-0.4117106795310974,-0.3977981209754944,-0.38388556241989136,-0.36997300386428833,-0.3560604155063629,-0.3421478569507599,-0.32823529839515686,-0.31432273983955383,-0.3004101812839508,-0.2864976227283478,-0.27258506417274475,-0.2586725056171417,-0.2447599321603775,-0.23084737360477448,-0.21693481504917145,-0.20302225649356842,-0.1891096979379654,-0.17519712448120117,-0.16128456592559814,-0.14737200736999512,-0.1334594488143921,-0.11954688280820847,-0.10563432425260544,-0.09172176569700241,-0.07780919969081879,-0.06389664113521576,-0.049984078854322433,-0.03607151657342911,-0.02215895615518093,-0.00824639480561018,0.005666166543960571,0.019578728824853897,0.03349129110574722,0.04740384966135025,0.061316411942243576,0.0752289742231369,0.08914153277873993,0.10305409878492355,0.11696665734052658,0.1308792233467102,0.14479178190231323,0.15870434045791626,0.1726168990135193,0.18652945756912231,0.20044203102588654,0.21435458958148956,0.2282671481370926,0.24217970669269562,0.25609228014945984,0.27000483870506287,0.2839173972606659,0.2978299558162689,0.31174251437187195,0.325655072927475,0.339567631483078,0.35348019003868103,0.36739274859428406,0.3813053369522095,0.3952178955078125,0.4091304540634155,0.42304301261901855,0.4369555711746216,0.4508681297302246],"_type":"histogram","values":[2,0,0,1,0,0,0,0,2,2,2,4,6,7,8,17,27,29,58,87,131,215,346,612,1275,2530,5311,10915,20721,34313,47477,52753,46199,32285,18716,10097,4948,2409,1320,751,442,283,175,122,84,68,46,31,23,16,12,8,10,4,6,2,0,0,0,1,1,1,0,1]},"parameters/graph_1fc.weight":{"bins":[-0.10548754036426544,-0.10270307958126068,-0.09991861134767532,-0.09713415056467056,-0.0943496897816658,-0.09156522899866104,-0.08878076076507568,-0.08599629998207092,-0.08321183919906616,-0.0804273709654808,-0.07764291018247604,-0.07485844939947128,-0.07207398861646652,-0.06928952038288116,-0.0665050595998764,-0.06372059881687164,-0.060936134308576584,-0.058151669800281525,-0.055367209017276764,-0.052582744508981705,-0.049798283725976944,-0.047013819217681885,-0.044229358434677124,-0.041444893926382065,-0.038660429418087006,-0.035875968635082245,-0.033091504126787186,-0.030307043343782425,-0.027522578835487366,-0.024738116189837456,-0.021953653544187546,-0.019169190898537636,-0.016384728252887726,-0.013600265607237816,-0.010815802961587906,-0.008031339384615421,-0.005246876738965511,-0.0024624138604849577,0.00032204901799559593,0.0031065118964761496,0.005890974774956703,0.008675437420606613,0.011459900066256523,0.014244363643229008,0.017028827220201492,0.019813289865851402,0.022597752511501312,0.025382215157151222,0.028166677802801132,0.030951140448451042,0.03373560309410095,0.03652006760239601,0.03930452838540077,0.04208899289369583,0.04487345367670059,0.04765791818499565,0.05044238269329071,0.05322684347629547,0.05601130798459053,0.05879576876759529,0.06158023327589035,0.06436469405889511,0.06714915484189987,0.06993362307548523,0.07271808385848999],"_type":"histogram","values":[1,0,1,0,2,3,1,4,10,11,22,23,39,49,62,62,85,99,94,109,122,103,99,120,98,129,114,136,103,132,115,108,126,117,107,109,108,113,120,119,128,118,115,133,119,121,121,123,115,117,126,120,114,124,102,90,89,72,36,28,17,9,3,5]},"parameters/graph_1layer4.1.bn1.weight":{"_type":"histogram","values":[1,0,0,0,0,0,0,2,1,0,0,3,1,1,1,5,3,6,7,6,7,9,10,10,10,8,18,29,22,32,19,25,24,19,20,25,27,20,21,22,17,11,13,8,7,9,2,7,5,5,4,1,2,2,1,1,1,0,0,0,0,0,0,2],"bins":[0.09432187676429749,0.10009682178497314,0.1058717593550682,0.11164670437574387,0.11742164194583893,0.12319658696651459,0.12897153198719025,0.1347464770078659,0.14052140712738037,0.14629635214805603,0.1520712971687317,0.15784624218940735,0.163621187210083,0.16939613223075867,0.17517106235027313,0.1809460073709488,0.18672095239162445,0.1924958974123001,0.19827084243297577,0.20404577255249023,0.2098207175731659,0.21559566259384155,0.2213706076145172,0.22714555263519287,0.23292049765586853,0.238695427775383,0.24447037279605865,0.2502453029155731,0.2560202479362488,0.26179519295692444,0.2675701379776001,0.27334508299827576,0.2791200280189514,0.2848949730396271,0.29066991806030273,0.2964448630809784,0.30221980810165405,0.3079947531223297,0.313769668340683,0.31954461336135864,0.3253195583820343,0.33109450340270996,0.3368694484233856,0.3426443934440613,0.34841933846473694,0.3541942834854126,0.35996922850608826,0.3657441735267639,0.3715190887451172,0.37729403376579285,0.3830689787864685,0.38884392380714417,0.3946188688278198,0.4003938138484955,0.40616875886917114,0.4119437038898468,0.41771864891052246,0.4234935939311981,0.4292685389518738,0.43504345417022705,0.4408183991909027,0.44659334421157837,0.45236828923225403,0.4581432342529297,0.46391817927360535]},"parameters/graph_1layer3.0.bn1.bias":{"bins":[-0.44550660252571106,-0.4353457987308502,-0.425184965133667,-0.41502416133880615,-0.4048633277416229,-0.3947025239467621,-0.38454169034957886,-0.374380886554718,-0.3642200827598572,-0.35405924916267395,-0.3438984453678131,-0.3337376117706299,-0.32357680797576904,-0.3134159743785858,-0.303255170583725,-0.29309433698654175,-0.2829335331916809,-0.27277272939682007,-0.26261189579963684,-0.252451092004776,-0.24229025840759277,-0.23212945461273193,-0.2219686359167099,-0.21180781722068787,-0.20164699852466583,-0.1914861798286438,-0.18132536113262177,-0.17116454243659973,-0.1610037386417389,-0.15084291994571686,-0.14068210124969482,-0.1305212825536728,-0.12036044895648956,-0.11019963026046753,-0.1000388115644455,-0.08987800031900406,-0.07971718162298203,-0.06955636292695999,-0.059395547956228256,-0.04923473298549652,-0.03907391428947449,-0.028913097456097603,-0.01875228062272072,-0.008591463789343834,0.0015693530440330505,0.011730169877409935,0.02189098671078682,0.032051801681518555,0.04221262037754059,0.05237343907356262,0.06253425776958466,0.07269506901502609,0.08285588771104813,0.09301670640707016,0.1031775176525116,0.11333833634853363,0.12349915504455566,0.1336599737405777,0.14382079243659973,0.15398161113262177,0.1641424298286438,0.17430323362350464,0.18446405231952667,0.1946248710155487,0.20478568971157074],"_type":"histogram","values":[1,0,0,1,0,0,0,0,2,2,1,0,0,0,4,2,2,5,2,4,9,4,14,9,5,13,3,16,16,10,14,16,16,17,7,8,9,7,6,3,5,0,1,4,2,5,2,0,0,2,1,0,0,1,1,0,2,1,0,0,0,0,0,1]},"parameters/graph_1layer2.1.bn1.bias":{"bins":[-0.6863489747047424,-0.676210880279541,-0.6660727262496948,-0.6559346318244934,-0.645796537399292,-0.6356584429740906,-0.6255202889442444,-0.615382194519043,-0.6052441000938416,-0.5951059460639954,-0.584967851638794,-0.5748297572135925,-0.5646916627883911,-0.5545535087585449,-0.5444154143333435,-0.5342773199081421,-0.5241391658782959,-0.5140010714530945,-0.5038629770278931,-0.49372485280036926,-0.48358675837516785,-0.47344863414764404,-0.4633105397224426,-0.4531724154949188,-0.443034291267395,-0.4328961968421936,-0.4227580726146698,-0.4126199781894684,-0.4024818539619446,-0.39234375953674316,-0.38220563530921936,-0.37206754088401794,-0.36192938685417175,-0.35179129242897034,-0.34165316820144653,-0.33151504397392273,-0.3213769495487213,-0.3112388253211975,-0.3011007308959961,-0.2909626066684723,-0.2808245122432709,-0.27068638801574707,-0.26054829359054565,-0.25041016936302185,-0.24027206003665924,-0.23013395071029663,-0.21999582648277283,-0.20985771715641022,-0.1997196078300476,-0.189581498503685,-0.1794433891773224,-0.16930527985095978,-0.15916717052459717,-0.14902906119823456,-0.13889095187187195,-0.12875282764434814,-0.11861471831798553,-0.10847660899162292,-0.09833849966526031,-0.0882003903388977,-0.0780622810125351,-0.06792416423559189,-0.05778605490922928,-0.04764794558286667,-0.03750983253121376],"_type":"histogram","values":[1,0,0,0,0,0,0,0,0,0,0,0,0,0,0,0,1,1,0,0,0,1,1,1,1,1,0,1,2,2,2,2,0,2,2,2,2,1,2,2,3,5,8,7,7,7,3,7,6,7,5,5,5,7,4,2,4,1,1,0,2,1,0,1]},"parameters/graph_1layer4.0.bn1.weight":{"values":[1,0,0,0,2,0,0,1,3,5,3,3,8,6,7,11,10,14,15,19,26,21,26,38,35,30,27,18,29,29,20,19,10,12,13,9,9,2,1,7,1,5,2,2,4,0,2,1,1,0,1,1,0,0,1,0,1,0,0,0,0,0,0,1],"bins":[0.1309949904680252,0.13583682477474213,0.14067864418029785,0.14552047848701477,0.1503623127937317,0.1552041471004486,0.16004598140716553,0.16488780081272125,0.16972963511943817,0.1745714694261551,0.17941328883171082,0.18425512313842773,0.18909695744514465,0.19393879175186157,0.1987806260585785,0.20362244546413422,0.20846427977085114,0.21330611407756805,0.21814793348312378,0.2229897677898407,0.22783160209655762,0.23267343640327454,0.23751527070999146,0.24235709011554718,0.2471989244222641,0.2520407438278198,0.25688257813453674,0.26172441244125366,0.2665662467479706,0.2714080810546875,0.2762499153614044,0.28109174966812134,0.28593355417251587,0.2907753884792328,0.2956172227859497,0.3004590570926666,0.30530089139938354,0.3101426959037781,0.314984530210495,0.3198263645172119,0.32466819882392883,0.32951003313064575,0.33435186743736267,0.3391937017440796,0.3440355062484741,0.34887734055519104,0.35371917486190796,0.3585610091686249,0.3634028434753418,0.3682446777820587,0.37308651208877563,0.37792834639549255,0.3827701807022095,0.387611985206604,0.3924538195133209,0.39729565382003784,0.40213748812675476,0.4069793224334717,0.4118211567401886,0.4166629910469055,0.42150479555130005,0.42634662985801697,0.4311884641647339,0.4360302984714508,0.4408721327781677],"_type":"histogram"},"parameters/graph_1layer1.0.conv1.weight":{"bins":[-0.8368597626686096,-0.8139691352844238,-0.791078507900238,-0.7681878209114075,-0.7452971935272217,-0.7224065661430359,-0.6995159387588501,-0.6766253113746643,-0.6537346839904785,-0.630843997001648,-0.6079533696174622,-0.5850627422332764,-0.5621721148490906,-0.5392814874649048,-0.5163908004760742,-0.4935001730918884,-0.47060954570770264,-0.44771891832351685,-0.42482826113700867,-0.4019376337528229,-0.3790469765663147,-0.3561563491821289,-0.3332657217979431,-0.31037506461143494,-0.28748443722724915,-0.26459380984306335,-0.24170315265655518,-0.21881252527236938,-0.1959218829870224,-0.17303124070167542,-0.15014061331748962,-0.12724997103214264,-0.10435938835144043,-0.08146874606609344,-0.05857811123132706,-0.03568747267127037,-0.012796834111213684,0.010093804448843002,0.03298444300889969,0.055875081568956375,0.07876572012901306,0.10165636241436005,0.12454699724912643,0.14743763208389282,0.1703282743692398,0.1932189166545868,0.21610954403877258,0.23900018632411957,0.26189082860946655,0.28478145599365234,0.3076721131801605,0.3305627405643463,0.3534533977508545,0.3763440251350403,0.3992346525192261,0.42212530970573425,0.44501593708992004,0.46790656447410583,0.490797221660614,0.5136878490447998,0.5365784764289856,0.5594691038131714,0.582359790802002,0.6052504181861877,0.6281410455703735],"_type":"histogram","values":[1,0,0,0,0,0,1,1,1,2,0,1,3,2,9,3,8,6,8,12,18,19,28,27,29,53,69,91,126,151,313,416,737,1331,2798,5743,12400,6112,3347,1520,706,362,157,93,63,30,18,7,12,9,4,1,4,1,3,1,1,0,0,1,0,3,0,2]},"parameters/graph_1conv1.weight":{"values":[3,0,0,3,0,1,3,6,8,5,7,12,9,20,21,23,28,25,58,66,88,111,130,186,246,307,427,752,1304,2682,959,579,335,245,171,126,93,76,58,46,32,34,18,24,19,11,12,4,6,6,4,6,3,2,2,2,0,0,0,0,0,0,1,3],"bins":[-0.8492715954780579,-0.8200615644454956,-0.7908514738082886,-0.7616413831710815,-0.7324313521385193,-0.703221321105957,-0.67401123046875,-0.644801139831543,-0.6155911087989807,-0.5863810777664185,-0.5571709871292114,-0.5279608964920044,-0.49875086545944214,-0.4695408046245575,-0.44033074378967285,-0.4111206829547882,-0.38191062211990356,-0.3527005612850189,-0.3234905004501343,-0.29428043961524963,-0.265070378780365,-0.23586031794548035,-0.2066502571105957,-0.17744019627571106,-0.14823013544082642,-0.11902007460594177,-0.08981001377105713,-0.060599952936172485,-0.03138989210128784,-0.0021798312664031982,0.027030229568481445,0.05624029040336609,0.08545041084289551,0.11466047167778015,0.1438705325126648,0.17308059334754944,0.20229065418243408,0.23150071501731873,0.26071077585220337,0.289920836687088,0.31913089752197266,0.3483409583568573,0.37755101919174194,0.4067610800266266,0.43597114086151123,0.4651812016963959,0.4943912625312805,0.5236012935638428,0.5528113842010498,0.5820214748382568,0.6112315058708191,0.6404415369033813,0.6696516275405884,0.6988617181777954,0.7280717492103577,0.7572817802429199,0.786491870880127,0.815701961517334,0.8449119925498962,0.8741220235824585,0.9033321142196655,0.9325422048568726,0.9617522358894348,0.9909622669219971,1.020172357559204],"_type":"histogram"},"parameters/graph_1layer2.0.downsample.1.weight":{"_type":"histogram","values":[1,1,3,5,0,5,2,9,1,4,4,2,4,6,0,8,2,5,5,5,3,1,3,5,4,4,4,0,6,2,3,1,4,0,2,2,3,2,2,2,0,0,1,0,0,0,1,0,0,0,0,0,0,0,0,0,0,0,0,0,0,0,0,1],"bins":[0.0071983556263148785,0.01662485860288143,0.026051361113786697,0.035477861762046814,0.04490436613559723,0.054330866783857346,0.06375736743211746,0.07318387180566788,0.08261037617921829,0.09203688055276871,0.10146337747573853,0.11088988184928894,0.12031638622283936,0.12974289059638977,0.13916939496994019,0.1485958993434906,0.15802238881587982,0.16744889318943024,0.17687539756298065,0.18630190193653107,0.19572840631008148,0.2051549106836319,0.2145814150571823,0.22400791943073273,0.23343440890312195,0.24286091327667236,0.2522874176502228,0.2617139220237732,0.2711404263973236,0.280566930770874,0.28999343514442444,0.29941993951797485,0.3088464140892029,0.3182729184627533,0.3276994228363037,0.3371259272098541,0.34655243158340454,0.35597893595695496,0.36540544033050537,0.3748319447040558,0.3842584490776062,0.39368492364883423,0.40311142802238464,0.41253793239593506,0.4219644367694855,0.4313909411430359,0.4408174455165863,0.4502439498901367,0.45967045426368713,0.46909695863723755,0.47852346301078796,0.4879499673843384,0.4973764717578888,0.5068029761314392,0.5162294507026672,0.52565598487854,0.5350824594497681,0.5445089936256409,0.5539354681968689,0.5633620023727417,0.5727884769439697,0.5822150111198425,0.5916414856910706,0.6010680198669434,0.6104944944381714]},"parameters/graph_1layer1.0.bn1.bias":{"_type":"histogram","values":[1,0,0,0,1,1,0,1,0,1,0,0,0,0,0,0,0,1,0,1,0,4,0,0,2,3,0,1,2,0,1,0,0,1,2,1,3,2,2,0,2,3,0,2,1,0,1,2,3,0,1,1,5,3,2,0,0,0,1,1,1,2,0,2],"bins":[-0.5479399561882019,-0.5345967411994934,-0.5212535262107849,-0.5079103112220764,-0.4945670962333679,-0.48122385144233704,-0.46788063645362854,-0.45453742146492004,-0.44119420647621155,-0.42785099148750305,-0.41450777649879456,-0.40116456151008606,-0.3878213167190552,-0.3744781017303467,-0.3611348867416382,-0.3477916717529297,-0.3344484567642212,-0.3211052417755127,-0.3077620267868042,-0.2944188117980957,-0.2810755968093872,-0.2677323520183563,-0.2543891370296478,-0.24104592204093933,-0.22770270705223083,-0.21435949206352234,-0.20101627707481384,-0.18767304718494415,-0.17432983219623566,-0.16098661720752716,-0.14764338731765747,-0.13430017232894897,-0.12095698714256287,-0.10761377215385437,-0.09427054971456528,-0.08092732727527618,-0.06758411228656769,-0.05424089357256889,-0.0408976748585701,-0.027554456144571304,-0.01421123743057251,-0.0008680187165737152,0.01247519999742508,0.025818418711423874,0.03916163742542267,0.05250485613942146,0.06584807485342026,0.07919129729270935,0.09253451228141785,0.10587772727012634,0.11922094970941544,0.13256417214870453,0.14590738713741302,0.15925060212612152,0.1725938320159912,0.1859370470046997,0.1992802619934082,0.2126234769821167,0.2259666919708252,0.23930992186069489,0.2526531219482422,0.26599636673927307,0.27933958172798157,0.29268279671669006,0.30602601170539856]},"confusion_matrix":[[199,0,2,0,1,3,0,0,1,0],[1,201,5,0,0,11,0,0,1,3],[0,1,297,0,0,2,1,1,0,2],[0,0,5,171,10,5,2,0,0,13],[2,1,6,47,174,11,1,0,2,12],[0,0,14,3,0,224,3,1,1,7],[1,0,14,4,2,15,249,0,1,2],[0,0,4,0,0,25,0,192,8,7],[2,1,25,3,0,35,0,15,232,10],[0,2,6,6,3,3,1,0,5,270]],"parameters/graph_1layer3.1.bn2.bias":{"_type":"histogram","values":[1,0,1,1,0,1,0,0,0,0,0,2,0,1,1,3,0,2,0,1,1,0,0,2,3,5,5,10,6,4,9,7,7,11,11,13,10,16,6,12,11,11,6,8,9,7,4,8,8,6,6,5,5,1,2,1,2,1,0,0,1,0,1,1],"bins":[-0.7159292697906494,-0.7019000053405762,-0.6878708004951477,-0.6738415360450745,-0.6598122715950012,-0.6457830667495728,-0.6317538022994995,-0.6177245378494263,-0.603695273399353,-0.5896660685539246,-0.5756368041038513,-0.5616075396537781,-0.5475783348083496,-0.5335490703582764,-0.5195198059082031,-0.5054906010627747,-0.4914613366127014,-0.47743210196495056,-0.4634028375148773,-0.44937360286712646,-0.4353443384170532,-0.42131510376930237,-0.4072858691215515,-0.39325660467147827,-0.3792273700237274,-0.36519813537597656,-0.3511688709259033,-0.33713963627815247,-0.3231104016304016,-0.30908113718032837,-0.2950519025325775,-0.2810226380825043,-0.2669934332370758,-0.25296419858932495,-0.2389349341392517,-0.22490569949150085,-0.2108764499425888,-0.19684720039367676,-0.1828179657459259,-0.16878871619701385,-0.1547594666481018,-0.14073021709918976,-0.1267009675502777,-0.11267173290252686,-0.09864248335361481,-0.08461323380470276,-0.07058399170637131,-0.05655474588274956,-0.04252550005912781,-0.028496254235506058,-0.014467008411884308,-0.000437762588262558,0.013591483235359192,0.027620729058980942,0.04164997488260269,0.05567922070622444,0.06970846652984619,0.08373771607875824,0.09776695817708969,0.11179620027542114,0.1258254498243332,0.13985469937324524,0.1538839340209961,0.16791318356990814,0.1819424331188202]},"parameters/graph_1bn1.weight":{"values":[8,0,0,0,0,0,0,0,0,0,0,0,0,0,0,0,1,0,0,0,0,1,1,1,1,6,0,2,1,1,4,2,3,4,0,6,6,2,3,0,0,1,0,0,0,2,2,1,0,0,2,0,0,0,0,0,0,0,1,0,0,0,0,2],"bins":[-5.1095959463509644e-08,0.008420874364674091,0.01684180088341236,0.025262726470828056,0.0336836501955986,0.0421045757830143,0.05052550137042999,0.05894642695784569,0.06736735254526138,0.07578828185796738,0.08420920372009277,0.09263013303279877,0.10105105489492416,0.10947198420763016,0.11789290606975555,0.12631383538246155,0.13473476469516754,0.14315567910671234,0.15157660841941833,0.15999753773212433,0.16841846704483032,0.17683938145637512,0.18526031076908112,0.1936812400817871,0.2021021693944931,0.2105230838060379,0.2189440131187439,0.2273649424314499,0.23578587174415588,0.24420678615570068,0.25262773036956787,0.26104864478111267,0.26946955919265747,0.27789047360420227,0.28631141781806946,0.29473233222961426,0.30315327644348145,0.31157419085502625,0.31999510526657104,0.32841604948043823,0.33683696389198303,0.34525787830352783,0.353678822517395,0.3620997369289398,0.3705206513404846,0.3789415955543518,0.3873625099658966,0.3957834541797638,0.4042043685913086,0.4126252830028534,0.4210462272167206,0.4294671416282654,0.43788808584213257,0.44630900025367737,0.45472991466522217,0.46315085887908936,0.47157177329063416,0.47999268770217896,0.48841363191604614,0.49683454632759094,0.5052554607391357,0.5136764049530029,0.5220973491668701,0.5305182337760925,0.5389391779899597],"_type":"histogram"},"parameters/graph_1layer3.0.downsample.1.bias":{"bins":[-0.4014429450035095,-0.3930126130580902,-0.3845822811126709,-0.3761519193649292,-0.3677215874195099,-0.3592912554740906,-0.3508608937263489,-0.34243056178092957,-0.33400022983551025,-0.32556989789009094,-0.31713956594467163,-0.30870920419692993,-0.3002788722515106,-0.2918485403060913,-0.2834181785583496,-0.2749878466129303,-0.266557514667511,-0.2581271827220917,-0.24969683587551117,-0.24126648902893066,-0.23283615708351135,-0.22440582513809204,-0.21597547829151154,-0.20754513144493103,-0.19911479949951172,-0.1906844675540924,-0.1822541207075119,-0.1738237738609314,-0.16539344191551208,-0.15696310997009277,-0.14853276312351227,-0.14010241627693176,-0.13167209923267365,-0.12324175983667374,-0.11481142044067383,-0.10638108104467392,-0.09795074164867401,-0.0895204022526741,-0.0810900628566742,-0.07265972346067429,-0.06422938406467438,-0.05579904466867447,-0.04736870527267456,-0.03893836587667465,-0.030508026480674744,-0.022077687084674835,-0.013647347688674927,-0.005217008292675018,0.00321333110332489,0.011643670499324799,0.020074009895324707,0.028504349291324615,0.036934688687324524,0.04536502808332443,0.05379536747932434,0.06222570687532425,0.07065604627132416,0.07908638566732407,0.08751672506332397,0.09594706445932388,0.10437740385532379,0.1128077432513237,0.12123808264732361,0.12966841459274292,0.13809876143932343],"_type":"histogram","values":[1,0,0,0,0,0,0,1,0,0,1,1,0,2,0,0,2,0,1,0,2,2,1,1,2,4,2,0,4,2,4,5,5,3,5,5,8,12,3,20,8,11,11,9,10,15,10,15,7,9,5,10,7,7,8,2,5,4,0,0,2,0,0,2]},"parameters/graph_1layer3.1.conv2.weight":{"_type":"histogram","values":[1,0,0,0,1,0,1,2,4,2,3,4,4,7,13,19,20,57,73,122,172,327,602,1247,2526,5229,10162,19688,34809,55388,77343,91902,91422,76519,53385,32542,17918,9077,4512,2253,1130,564,304,184,119,65,32,20,11,12,6,6,1,3,3,2,2,1,1,0,0,1,0,1],"bins":[-0.32782644033432007,-0.3176661729812622,-0.30750587582588196,-0.2973456084728241,-0.28718531131744385,-0.277025043964386,-0.26686474680900574,-0.2567044794559479,-0.24654419720172882,-0.23638391494750977,-0.2262236326932907,-0.21606335043907166,-0.2059030830860138,-0.19574280083179474,-0.18558251857757568,-0.17542223632335663,-0.16526195406913757,-0.15510167181491852,-0.14494138956069946,-0.1347811073064804,-0.12462083250284195,-0.1144605502486229,-0.10430027544498444,-0.09413999319076538,-0.08397971093654633,-0.07381942868232727,-0.06365914642810822,-0.05349887162446976,-0.0433385893702507,-0.03317830711603165,-0.02301802858710289,-0.012857748195528984,-0.0026974380016326904,0.0074628423899412155,0.01762312278151512,0.027783403173089027,0.03794368356466293,0.04810396581888199,0.058264244347810745,0.0684245228767395,0.07858480513095856,0.08874508738517761,0.09890536963939667,0.10906564444303513,0.11922592669725418,0.12938620150089264,0.1395464837551117,0.14970676600933075,0.1598670482635498,0.17002733051776886,0.18018761277198792,0.19034789502620697,0.20050817728042603,0.2106684446334839,0.22082872688770294,0.230989009141922,0.24114929139614105,0.2513095736503601,0.26146984100341797,0.2716301381587982,0.2817904055118561,0.29195070266723633,0.3021109700202942,0.31227126717567444,0.3224315345287323]},"parameters/graph_1layer1.1.bn1.weight":{"bins":[0.18860287964344025,0.19303593039512634,0.19746899604797363,0.20190204679965973,0.20633509755134583,0.21076814830303192,0.21520119905471802,0.2196342647075653,0.2240673154592514,0.2285003662109375,0.2329334318637848,0.2373664826154709,0.24179953336715698,0.24623258411884308,0.2506656348705292,0.25509870052337646,0.25953173637390137,0.26396480202674866,0.26839786767959595,0.27283090353012085,0.27726396918296814,0.28169703483581543,0.28613007068634033,0.2905631363391876,0.2949962019920349,0.2994292378425598,0.3038623034954071,0.308295339345932,0.3127284049987793,0.3171614706516266,0.3215945065021515,0.3260275721549988,0.33046063780784607,0.33489370346069336,0.33932673931121826,0.34375980496406555,0.34819287061691284,0.35262590646743774,0.35705897212028503,0.36149200797080994,0.3659250736236572,0.3703581392765045,0.3747911751270294,0.3792242407798767,0.3836572766304016,0.3880903422832489,0.3925234079360962,0.3969564437866211,0.4013895094394684,0.4058225750923157,0.4102556109428406,0.41468867659568787,0.41912174224853516,0.42355477809906006,0.42798784375190735,0.43242087960243225,0.43685394525527954,0.44128701090812683,0.44572004675865173,0.450153112411499,0.4545861482620239,0.4590192139148712,0.4634522795677185,0.4678853154182434,0.4723183810710907],"_type":"histogram","values":[3,1,0,1,0,0,0,2,0,0,1,0,0,0,2,1,2,0,0,3,0,2,2,0,1,2,3,2,2,2,1,0,3,0,3,1,1,3,1,2,1,1,0,0,1,1,1,1,0,0,1,3,2,1,0,0,0,0,0,0,0,2,0,2]},"parameters/graph_1layer4.0.downsample.1.bias":{"_type":"histogram","values":[1,0,1,0,0,3,3,3,2,6,0,5,5,8,9,14,6,7,18,8,19,16,12,26,25,36,19,41,38,30,25,18,24,18,6,11,10,4,10,2,4,4,2,1,2,2,1,0,0,0,1,0,0,1,0,0,1,1,1,0,0,1,0,1],"bins":[-0.42620593309402466,-0.4182634949684143,-0.41032108664512634,-0.402378648519516,-0.394436240196228,-0.3864938020706177,-0.3785513937473297,-0.37060895562171936,-0.3626665472984314,-0.35472410917282104,-0.3467817008495331,-0.33883926272392273,-0.33089685440063477,-0.3229544162750244,-0.31501200795173645,-0.3070695698261261,-0.29912716150283813,-0.2911847233772278,-0.28324228525161743,-0.27529987692832947,-0.2673574388027191,-0.25941503047943115,-0.2514725923538208,-0.24353018403053284,-0.23558774590492249,-0.22764532268047333,-0.21970289945602417,-0.211760476231575,-0.20381805300712585,-0.1958756297826767,-0.18793320655822754,-0.17999078333377838,-0.17204833030700684,-0.16410590708255768,-0.15616348385810852,-0.14822106063365936,-0.1402786374092102,-0.13233621418476105,-0.12439379096031189,-0.11645136773586273,-0.10850894451141357,-0.10056652128696442,-0.09262409806251526,-0.0846816748380661,-0.07673925161361694,-0.06879682093858719,-0.06085439771413803,-0.05291197448968887,-0.044969551265239716,-0.03702712804079056,-0.02908470295369625,-0.021142277866601944,-0.013199854642152786,-0.005257430486381054,0.0026849936693906784,0.01062741782516241,0.018569841980934143,0.0265122652053833,0.03445468842983246,0.042397115379571915,0.05033953860402107,0.05828196182847023,0.06622438877820969,0.07416681200265884,0.082109235227108]},"parameters/graph_1layer4.0.conv2.weight":{"_type":"histogram","values":[1,0,0,0,1,1,1,3,1,4,3,6,5,11,11,16,30,71,136,365,1026,2910,8721,23616,57745,123445,222063,333115,405326,402784,326113,219632,124196,61619,27252,11175,4453,1796,750,398,216,105,67,37,19,7,12,6,2,4,7,4,1,1,1,2,0,1,0,0,0,2,0,1],"bins":[-0.31693315505981445,-0.30611637234687805,-0.29529958963394165,-0.28448280692100525,-0.27366599440574646,-0.26284921169281006,-0.25203242897987366,-0.24121564626693726,-0.23039886355400085,-0.21958206593990326,-0.20876528322696686,-0.19794850051403046,-0.18713170289993286,-0.17631492018699646,-0.16549813747406006,-0.15468133985996246,-0.14386455714702606,-0.13304777443408966,-0.12223098427057266,-0.11141419410705566,-0.10059741139411926,-0.08978062123060226,-0.07896383106708527,-0.06814704835414886,-0.057330258190631866,-0.04651347175240517,-0.03569668531417847,-0.02487989515066147,-0.014063108712434769,-0.0032463213428854942,0.00757046602666378,0.01838725432753563,0.02920404076576233,0.04002082720398903,0.05083761364221573,0.06165440380573273,0.07247118651866913,0.08328797668218613,0.09410476684570312,0.10492154955863953,0.11573833972215652,0.12655512988567352,0.13737191259860992,0.14818869531154633,0.15900549292564392,0.16982227563858032,0.18063905835151672,0.19145585596561432,0.20227263867855072,0.21308942139148712,0.22390621900558472,0.23472300171852112,0.24553978443145752,0.2563565671443939,0.2671733498573303,0.2779901623725891,0.2888069450855255,0.2996237277984619,0.3104405105113983,0.3212572932243347,0.3320740759372711,0.3428908884525299,0.3537076711654663,0.3645244538784027,0.3753412365913391]},"parameters/graph_1layer4.1.conv1.weight":{"bins":[-0.22017449140548706,-0.21185559034347534,-0.20353667438030243,-0.19521775841712952,-0.1868988573551178,-0.17857995629310608,-0.17026104032993317,-0.16194212436676025,-0.15362322330474854,-0.14530432224273682,-0.1369854062795639,-0.128666490316391,-0.12034758925437927,-0.11202868074178696,-0.10370977222919464,-0.09539086371660233,-0.08707195520401001,-0.0787530466914177,-0.07043413817882538,-0.06211522966623306,-0.05379632115364075,-0.04547741264104843,-0.037158504128456116,-0.0288395956158638,-0.020520687103271484,-0.012201778590679169,-0.003882870078086853,0.004436038434505463,0.012754946947097778,0.021073855459690094,0.02939276397228241,0.037711672484874725,0.04603058099746704,0.05434948951005936,0.06266839802265167,0.07098730653524399,0.0793062150478363,0.08762512356042862,0.09594403207302094,0.10426294058561325,0.11258184909820557,0.12090075761079788,0.1292196661233902,0.1375385820865631,0.14585748314857483,0.15417638421058655,0.16249530017375946,0.17081421613693237,0.1791331171989441,0.1874520182609558,0.19577093422412872,0.20408985018730164,0.21240875124931335,0.22072765231132507,0.22904656827449799,0.2373654842376709,0.24568438529968262,0.25400328636169434,0.26232218742370605,0.27064111828804016,0.2789600193500519,0.2872789204120636,0.2955978512763977,0.3039167523384094,0.31223565340042114],"_type":"histogram","values":[4,1,2,2,6,3,6,4,7,12,16,25,72,141,358,833,2162,5137,11974,26638,53533,97570,160001,231499,294297,327456,319632,275446,210862,144112,90541,51370,27774,14198,6892,3354,1637,810,417,197,96,66,31,27,24,13,8,5,6,1,4,3,2,2,2,1,0,0,0,0,0,1,1,2]},"parameters/graph_1layer1.1.bn2.bias":{"values":[1,0,1,0,0,0,0,0,0,1,1,0,1,1,0,1,0,1,1,1,0,1,2,1,3,3,2,3,3,1,2,2,1,0,2,5,2,2,2,2,2,1,0,0,2,1,1,1,0,0,1,0,1,1,0,0,1,1,0,0,1,0,0,1],"bins":[-0.4421817362308502,-0.4295741617679596,-0.41696658730506897,-0.40435898303985596,-0.39175140857696533,-0.3791438341140747,-0.3665362596511841,-0.35392865538597107,-0.34132108092308044,-0.3287135064601898,-0.3161059319972992,-0.30349835753440857,-0.29089075326919556,-0.27828317880630493,-0.2656756043434143,-0.2530680298805237,-0.24046044051647186,-0.22785286605358124,-0.21524527668952942,-0.2026377022266388,-0.19003011286258698,-0.17742253839969635,-0.16481494903564453,-0.1522073745727539,-0.13959980010986328,-0.12699221074581146,-0.11438462883234024,-0.10177704691886902,-0.0891694724559784,-0.07656189054250717,-0.06395430862903595,-0.05134672671556473,-0.038739144802093506,-0.026131562888622284,-0.013523982837796211,-0.0009164018556475639,0.011691179126501083,0.024298761039972305,0.03690633922815323,0.04951392114162445,0.06212150305509567,0.0747290849685669,0.08733666688203812,0.09994424879550934,0.11255182325839996,0.12515941262245178,0.1377669870853424,0.15037457644939423,0.16298215091228485,0.17558972537517548,0.1881973147392273,0.20080488920211792,0.21341247856616974,0.22602005302906036,0.23862764239311218,0.2512352168560028,0.26384279131889343,0.27645036578178406,0.28905797004699707,0.3016655445098877,0.3142731189727783,0.32688069343566895,0.33948829770088196,0.3520958721637726,0.3647034466266632],"_type":"histogram"},"parameters/graph_1layer1.0.bn2.bias":{"_type":"histogram","values":[2,1,0,0,0,0,0,1,0,3,0,1,2,1,0,2,2,1,2,1,3,2,0,4,2,0,2,2,2,1,1,3,1,4,1,0,0,1,0,3,1,2,2,0,0,1,1,1,0,0,1,0,1,0,2,0,0,0,0,0,0,0,0,1],"bins":[-0.39750075340270996,-0.3832681477069855,-0.369035542011261,-0.3548029065132141,-0.3405703008174896,-0.32633769512176514,-0.31210505962371826,-0.2978724539279938,-0.2836398482322693,-0.2694072425365448,-0.2551746368408203,-0.24094200134277344,-0.22670939564704895,-0.21247678995132446,-0.19824416935443878,-0.1840115487575531,-0.1697789430618286,-0.15554633736610413,-0.14131371676921844,-0.12708109617233276,-0.11284849047660828,-0.09861587733030319,-0.08438326418399811,-0.07015065103769302,-0.05591803789138794,-0.041685424745082855,-0.02745281159877777,-0.013220198452472687,0.0010124146938323975,0.015245027840137482,0.029477640986442566,0.04371025413274765,0.057942867279052734,0.07217548042535782,0.0864080935716629,0.10064070671796799,0.11487331986427307,0.12910592555999756,0.14333854615688324,0.15757116675376892,0.1718037724494934,0.1860363781452179,0.20026899874210358,0.21450161933898926,0.22873422503471375,0.24296683073043823,0.2571994662284851,0.2714320719242096,0.2856646776199341,0.29989728331565857,0.31412988901138306,0.32836252450942993,0.3425951302051544,0.3568277359008789,0.3710603713989258,0.38529297709465027,0.39952558279037476,0.41375818848609924,0.42799079418182373,0.4422234296798706,0.4564560353755951,0.4706886410713196,0.48492127656936646,0.49915388226509094,0.5133864879608154]},"test_f1_score":0.8535216315509909,"parameters/graph_1layer2.1.bn1.weight":{"bins":[0.1724829226732254,0.17693138122558594,0.18137982487678528,0.1858282834291458,0.19027674198150635,0.19472520053386688,0.19917365908622742,0.20362210273742676,0.2080705612897873,0.21251901984214783,0.21696746349334717,0.2214159220457077,0.22586438059806824,0.23031283915042877,0.2347612977027893,0.23920974135398865,0.24365819990634918,0.24810665845870972,0.25255510210990906,0.2570035755634308,0.2614520192146301,0.26590046286582947,0.2703489363193512,0.27479737997055054,0.27924585342407227,0.2836942970752716,0.28814274072647095,0.2925912141799927,0.297039657831192,0.30148810148239136,0.3059365749359131,0.3103850185871124,0.31483346223831177,0.3192819058895111,0.32373037934303284,0.3281788229942322,0.3326272964477539,0.33707574009895325,0.3415241837501526,0.3459726572036743,0.35042110085487366,0.354869544506073,0.3593180179595947,0.36376646161079407,0.3682149052619934,0.37266337871551514,0.3771118223667145,0.3815602958202362,0.38600873947143555,0.3904571831226349,0.3949056565761566,0.39935410022735596,0.4038025736808777,0.408251017332077,0.41269946098327637,0.4171479344367981,0.42159637808799744,0.4260448217391968,0.4304932951927185,0.43494173884391785,0.4393901824951172,0.4438386559486389,0.44828709959983826,0.45273557305336,0.4571840167045593],"_type":"histogram","values":[1,0,0,0,0,0,0,0,0,1,1,0,1,1,0,3,3,7,1,3,2,2,2,6,6,2,3,11,3,3,5,2,5,5,9,4,1,3,3,6,3,2,2,3,1,1,0,0,2,2,1,0,0,1,0,1,1,0,0,1,0,1,0,1]},"parameters/graph_1layer2.0.conv2.weight":{"bins":[-0.3548971712589264,-0.34230807423591614,-0.3297189772129059,-0.31712988018989563,-0.3045407831668854,-0.2919516861438751,-0.27936258912086487,-0.2667734920978546,-0.25418439507484436,-0.2415952831506729,-0.22900618612766266,-0.2164170891046524,-0.20382799208164215,-0.1912388950586319,-0.17864979803562164,-0.1660607010126114,-0.15347160398960114,-0.14088250696659088,-0.12829340994358063,-0.11570431292057037,-0.10311521589756012,-0.09052611142396927,-0.07793701440095901,-0.06534791737794876,-0.05275882035493851,-0.04016972333192825,-0.02758062444627285,-0.014991526491940022,-0.002402428537607193,0.010186669416725636,0.022775767371058464,0.03536486625671387,0.04795396327972412,0.060543060302734375,0.07313215732574463,0.08572125434875488,0.09831035137176514,0.11089945584535599,0.12348855286836624,0.1360776424407959,0.14866673946380615,0.1612558513879776,0.17384494841098785,0.1864340454339981,0.19902314245700836,0.21161223948001862,0.22420133650302887,0.23679043352603912,0.24937953054904938,0.2619686424732208,0.2745577394962311,0.28714683651924133,0.2997359335422516,0.31232503056526184,0.3249141275882721,0.33750322461128235,0.3500923216342926,0.36268141865730286,0.3752705156803131,0.38785961270332336,0.4004487097263336,0.41303780674934387,0.4256269037723541,0.4382160007953644,0.45080509781837463],"_type":"histogram","values":[1,2,3,3,2,6,8,11,9,16,19,34,50,56,90,133,170,245,374,543,954,1550,2646,4691,8061,12967,17942,21860,21867,18915,13654,8615,4979,2895,1534,899,547,334,252,135,108,76,49,32,34,17,13,12,3,7,8,2,4,4,3,4,1,2,2,1,1,0,0,1]},"parameters/graph_1layer3.0.downsample.1.weight":{"bins":[0.009252766147255898,0.013671008870005608,0.018089253455400467,0.022507496178150177,0.026925738900899887,0.0313439816236496,0.03576222434639931,0.04018046706914902,0.044598713517189026,0.049016956239938736,0.053435198962688446,0.057853441685438156,0.062271684408187866,0.06668993085622787,0.07110816985368729,0.0755264163017273,0.0799446552991867,0.08436290174722672,0.08878114074468613,0.09319938719272614,0.09761762619018555,0.10203587263822556,0.10645411908626556,0.11087235808372498,0.11529060453176498,0.1197088435292244,0.1241270899772644,0.12854532897472382,0.13296356797218323,0.13738182187080383,0.14180006086826324,0.14621829986572266,0.15063653886318207,0.15505477786064148,0.15947303175926208,0.1638912707567215,0.1683095097541809,0.17272774875164032,0.17714600265026093,0.18156424164772034,0.18598248064517975,0.19040073454380035,0.19481897354125977,0.19923721253871918,0.2036554515361786,0.2080737054347992,0.2124919444322586,0.21691018342971802,0.22132843732833862,0.22574667632579803,0.23016491532325745,0.23458315432071686,0.23900140821933746,0.24341964721679688,0.2478378862142563,0.2522561252117157,0.2566743791103363,0.2610926330089569,0.2655108571052551,0.26992911100387573,0.27434733510017395,0.27876558899879456,0.28318384289741516,0.2876020669937134,0.292020320892334],"_type":"histogram","values":[2,1,4,7,3,7,5,9,12,7,10,13,10,12,7,6,2,8,7,6,8,10,9,7,6,9,4,10,10,6,6,3,4,2,1,2,1,2,4,1,2,3,3,3,1,0,0,0,0,0,0,0,0,0,0,0,0,0,0,0,0,0,0,1]},"_runtime":3,"parameters/graph_1layer4.0.downsample.0.weight":{"_type":"histogram","values":[1,0,0,0,0,0,0,0,0,0,0,0,0,1,1,2,7,6,7,18,27,53,92,229,713,2156,6693,16685,29296,32479,23192,11686,4635,1763,732,301,154,60,32,20,13,5,6,3,1,1,0,0,0,0,0,1,0,0,0,0,0,0,0,0,0,0,0,1],"bins":[-0.6515141725540161,-0.6293382048606873,-0.6071622371673584,-0.5849862694740295,-0.5628103017807007,-0.5406343936920166,-0.5184584259986877,-0.4962824583053589,-0.47410649061203003,-0.45193052291870117,-0.4297545552253723,-0.40757861733436584,-0.385402649641037,-0.36322668194770813,-0.34105074405670166,-0.3188747763633728,-0.29669880867004395,-0.2745228409767151,-0.25234687328338623,-0.23017093539237976,-0.2079949676990509,-0.18581900000572205,-0.16364304721355438,-0.14146709442138672,-0.11929112672805786,-0.0971151664853096,-0.07493920624256134,-0.05276324599981308,-0.03058728575706482,-0.008411325514316559,0.013764634728431702,0.03594059497117996,0.05811655521392822,0.08029251545667648,0.10246847569942474,0.124644435942173,0.14682039618492126,0.16899636387825012,0.19117231667041779,0.21334826946258545,0.2355242371559143,0.25770020484924316,0.279876172542572,0.3020521104335785,0.32422807812690735,0.3464040458202362,0.3685799837112427,0.39075595140457153,0.4129319190979004,0.43510788679122925,0.4572838544845581,0.4794597923755646,0.5016357898712158,0.5238116979598999,0.5459876656532288,0.5681636333465576,0.5903396010398865,0.6125155687332153,0.6346915364265442,0.656867504119873,0.6790434122085571,0.701219379901886,0.7233953475952148,0.7455713152885437,0.7677472829818726]},"parameters/graph_1layer4.0.conv1.weight":{"_type":"histogram","values":[1,0,0,0,1,4,2,2,10,9,10,18,35,60,104,218,561,1328,3337,8298,18673,38612,71850,115727,158137,184280,180977,149736,106908,66229,37075,19025,9325,4539,2171,1062,545,303,173,108,72,41,29,16,8,7,4,3,2,4,3,1,2,0,0,1,0,0,1,0,0,0,0,1],"bins":[-0.2820838391780853,-0.27132561802864075,-0.26056739687919617,-0.2498091757297516,-0.239050954580307,-0.22829274833202362,-0.21753452718257904,-0.20677630603313446,-0.19601808488368988,-0.1852598637342453,-0.17450164258480072,-0.16374342143535614,-0.15298521518707275,-0.14222699403762817,-0.1314687728881836,-0.12071055173873901,-0.10995233058929443,-0.09919410943984985,-0.08843588829040527,-0.07767767459154129,-0.06691945344209671,-0.05616123229265213,-0.04540301486849785,-0.03464479744434357,-0.023886576294898987,-0.013128357008099556,-0.002370137721300125,0.008388081565499306,0.019146300852298737,0.029904520139098167,0.0406627394258976,0.05142095685005188,0.06217917799949646,0.07293739914894104,0.08369562029838562,0.0944538339972496,0.10521205514669418,0.11597027629613876,0.12672848999500275,0.13748671114444733,0.1482449322938919,0.1590031534433365,0.16976137459278107,0.18051959574222565,0.19127780199050903,0.2020360231399536,0.2127942442893982,0.22355246543884277,0.23431068658828735,0.24506890773773193,0.2558271288871765,0.2665853500366211,0.2773435711860657,0.28810179233551025,0.29886001348495483,0.3096182346343994,0.320376455783844,0.3311346471309662,0.34189286828041077,0.35265108942985535,0.3634093105792999,0.3741675317287445,0.3849257528781891,0.39568397402763367,0.40644219517707825]},"_timestamp":1.7598946666651776e+09,"_step":0,"parameters/graph_1layer2.0.bn1.weight":{"bins":[0.14714470505714417,0.15097078680992126,0.15479686856269836,0.15862295031547546,0.16244903206825256,0.16627511382102966,0.17010119557380676,0.17392727732658386,0.17775335907936096,0.18157944083213806,0.18540552258491516,0.18923160433769226,0.19305768609046936,0.19688376784324646,0.20070984959602356,0.20453593134880066,0.20836201310157776,0.21218810975551605,0.21601419150829315,0.21984027326107025,0.22366635501384735,0.22749243676662445,0.23131851851940155,0.23514460027217865,0.23897068202495575,0.24279676377773285,0.24662284553050995,0.25044891238212585,0.25427499413490295,0.25810107588768005,0.26192715764045715,0.26575323939323425,0.26957935094833374,0.27340543270111084,0.27723151445388794,0.28105759620666504,0.28488367795944214,0.28870975971221924,0.29253584146499634,0.29636192321777344,0.30018800497055054,0.30401408672332764,0.30784016847610474,0.31166625022888184,0.31549233198165894,0.31931841373443604,0.32314449548721313,0.32697057723999023,0.33079665899276733,0.33462274074554443,0.33844882249832153,0.34227490425109863,0.34610098600387573,0.34992706775665283,0.35375314950942993,0.35757923126220703,0.36140531301498413,0.36523139476776123,0.36905747652053833,0.37288355827331543,0.37670964002609253,0.38053572177886963,0.38436180353164673,0.38818788528442383,0.3920139670372009],"_type":"histogram","values":[1,0,1,0,0,0,0,0,0,1,0,1,0,0,0,1,1,0,0,1,1,1,0,1,0,1,0,3,0,3,2,0,2,2,1,1,3,6,2,8,5,5,5,9,2,7,3,4,8,6,3,6,1,3,2,3,2,0,4,1,1,0,2,2]},"parameters/graph_1layer4.1.bn1.bias":{"bins":[-0.5926832556724548,-0.5825057625770569,-0.5723282098770142,-0.5621507167816162,-0.5519732236862183,-0.5417957305908203,-0.5316181778907776,-0.5214406847953796,-0.5112631916999817,-0.501085638999939,-0.490908145904541,-0.4807306230068207,-0.47055312991142273,-0.4603756070137024,-0.45019811391830444,-0.4400205910205841,-0.42984306812286377,-0.4196655750274658,-0.4094880521297455,-0.39931055903434753,-0.3891330361366272,-0.37895554304122925,-0.3687780201435089,-0.3586004972457886,-0.3484230041503906,-0.3382454812526703,-0.32806798815727234,-0.317890465259552,-0.30771294236183167,-0.2975354492664337,-0.2873579263687134,-0.27718043327331543,-0.2670029103755951,-0.25682538747787476,-0.2466478794813156,-0.23647037148475647,-0.22629284858703613,-0.216115340590477,-0.20593783259391785,-0.1957603245973587,-0.18558281660079956,-0.17540530860424042,-0.16522778570652008,-0.15505027770996094,-0.1448727697134018,-0.13469526171684265,-0.12451774626970291,-0.11434023827314377,-0.10416272282600403,-0.09398521482944489,-0.08380770683288574,-0.073630191385746,-0.06345268338918686,-0.05327517166733742,-0.043097659945487976,-0.03292015194892883,-0.02274264022707939,-0.012565129436552525,-0.0023876186460256577,0.007789892144501209,0.017967402935028076,0.028144914656877518,0.03832242637872696,0.0484999343752861,0.058677446097135544],"_type":"histogram","values":[1,0,1,0,1,1,0,3,1,3,0,2,3,1,4,8,4,9,5,3,3,5,9,8,10,10,16,15,22,19,23,25,17,23,24,29,24,19,19,17,20,14,13,8,6,4,1,11,8,4,4,7,3,1,8,6,1,1,2,0,0,0,0,3]},"parameters/graph_1layer4.1.bn2.bias":{"_type":"histogram","values":[2,0,0,1,3,0,4,1,8,8,13,14,16,21,16,16,31,22,30,22,29,23,32,21,21,23,16,23,14,8,4,10,7,6,4,5,6,3,3,1,5,2,3,1,2,2,0,2,1,1,0,1,1,0,1,1,0,0,0,0,1,0,0,1],"bins":[0.08308723568916321,0.09206260740756989,0.10103797167539597,0.11001333594322205,0.11898870766162872,0.1279640793800354,0.13693943619728088,0.14591480791568756,0.15489017963409424,0.16386555135250092,0.1728409230709076,0.18181627988815308,0.19079165160655975,0.19976702332496643,0.20874238014221191,0.2177177518606186,0.22669312357902527,0.23566849529743195,0.24464386701583862,0.2536192238330841,0.2625945806503296,0.27156996726989746,0.28054532408714294,0.2895207107067108,0.2984960675239563,0.3074714243412018,0.31644681096076965,0.32542216777801514,0.334397554397583,0.3433729112148285,0.352348268032074,0.36132365465164185,0.3702990412712097,0.3792743980884552,0.38824978470802307,0.39722514152526855,0.4062005281448364,0.4151758849620819,0.4241512417793274,0.43312662839889526,0.44210198521614075,0.45107734203338623,0.4600527286529541,0.4690280854701996,0.47800344228744507,0.48697882890701294,0.4959541857242584,0.5049295425415039,0.5139049291610718,0.5228803157806396,0.5318556427955627,0.5408310294151306,0.5498064160346985,0.5587817430496216,0.5677571296691895,0.5767325162887573,0.5857079029083252,0.5946832299232483,0.6036586165428162,0.612634003162384,0.6216093301773071,0.630584716796875,0.6395601034164429,0.648535430431366,0.6575108170509338]},"parameters/graph_1layer2.0.bn2.bias":{"values":[1,0,0,1,0,0,0,0,0,0,0,1,1,0,1,0,1,1,1,0,3,0,2,2,1,3,1,1,6,3,1,0,4,4,8,0,2,3,2,4,4,2,4,1,3,5,3,4,5,9,3,0,1,3,3,4,2,2,2,2,3,3,0,2],"bins":[-0.30793923139572144,-0.3009326159954071,-0.2939260005950928,-0.28691935539245605,-0.2799127399921417,-0.2729061245918274,-0.2658994793891907,-0.25889286398887634,-0.251886248588562,-0.24487963318824768,-0.23787300288677216,-0.23086637258529663,-0.2238597571849823,-0.21685314178466797,-0.20984651148319244,-0.20283988118171692,-0.1958332657814026,-0.18882665038108826,-0.18182002007961273,-0.1748133897781372,-0.16780677437782288,-0.16080015897750854,-0.15379352867603302,-0.1467868983745575,-0.13978028297424316,-0.13277366757392883,-0.1257670372724533,-0.11876041442155838,-0.11175379157066345,-0.10474716871976852,-0.0977405458688736,-0.09073392301797867,-0.08372731506824493,-0.07672069221735,-0.06971406936645508,-0.06270744651556015,-0.05570082366466522,-0.048694200813770294,-0.041687577962875366,-0.03468095511198044,-0.02767433226108551,-0.020667709410190582,-0.013661086559295654,-0.006654463708400726,0.00035215914249420166,0.00735878199338913,0.014365404844284058,0.021372027695178986,0.028378650546073914,0.03538527339696884,0.04239189624786377,0.0493985190987587,0.056405141949653625,0.06341176480054855,0.07041838765144348,0.07742501050233841,0.08443163335323334,0.09143825620412827,0.0984448790550232,0.10545150190591812,0.11245812475681305,0.11946474760770798,0.1264713704586029,0.13347798585891724,0.14048461616039276],"_type":"histogram"},"parameters/graph_1layer2.1.conv1.weight":{"values":[1,0,0,1,2,4,4,3,3,5,9,6,15,22,33,41,50,59,120,190,270,393,741,1192,2058,3910,7103,12124,18358,23593,24063,20101,13894,8251,4550,2546,1378,833,500,327,218,135,93,79,46,32,24,23,8,9,12,7,3,5,3,1,1,0,0,1,0,0,1,2],"bins":[-0.40689823031425476,-0.39348748326301575,-0.38007673621177673,-0.3666659891605377,-0.3532552421092987,-0.3398444950580597,-0.3264337480068207,-0.31302300095558167,-0.29961222410202026,-0.28620147705078125,-0.27279072999954224,-0.2593799829483032,-0.2459692358970642,-0.2325584888458252,-0.21914774179458618,-0.20573699474334717,-0.19232624769210815,-0.17891550064086914,-0.16550475358963013,-0.1520940065383911,-0.1386832594871521,-0.1252724975347519,-0.11186175048351288,-0.09845100343227386,-0.08504025638103485,-0.07162950932979584,-0.058218758553266525,-0.04480800777673721,-0.0313972607254982,-0.017986511811614037,-0.004575762897729874,0.00883498601615429,0.022245734930038452,0.035656481981277466,0.04906723275780678,0.06247798353433609,0.0758887305855751,0.08929947763681412,0.10271023213863373,0.11612097918987274,0.12953172624111176,0.14294247329235077,0.15635322034358978,0.1697639673948288,0.183174729347229,0.19658547639846802,0.20999622344970703,0.22340697050094604,0.23681771755218506,0.2502284646034241,0.2636392116546631,0.2770499587059021,0.2904607057571411,0.3038714528083801,0.31728219985961914,0.33069294691085815,0.34410369396209717,0.35751447081565857,0.3709252178668976,0.3843359649181366,0.3977467119693756,0.4111574590206146,0.42456820607185364,0.43797895312309265,0.45138970017433167],"_type":"histogram"},"parameters/graph_1layer4.1.conv2.weight":{"_type":"histogram","values":[1,0,0,0,0,1,3,0,1,3,4,31,68,187,502,1849,5435,15512,39504,86021,158683,245731,320912,357784,339422,282734,207155,134108,77947,42107,21645,10752,5098,2602,1408,747,423,256,184,123,88,59,35,40,31,21,20,14,9,8,4,5,5,3,2,2,1,1,0,2,0,1,0,2],"bins":[-0.1642463505268097,-0.15741004049777985,-0.15057373046875,-0.14373743534088135,-0.1369011253118515,-0.13006481528282166,-0.1232285127043724,-0.11639221012592316,-0.10955590009689331,-0.10271959006786346,-0.09588328748941422,-0.08904698491096497,-0.08221067488193512,-0.07537436485290527,-0.06853806227445602,-0.061701755970716476,-0.05486544966697693,-0.04802914336323738,-0.04119283705949783,-0.034356530755758286,-0.027520224452018738,-0.02068391814827919,-0.013847611844539642,-0.007011305540800095,-0.00017499923706054688,0.006661307066679001,0.013497613370418549,0.020333919674158096,0.027170225977897644,0.03400653228163719,0.04084283858537674,0.04767914488911629,0.054515451192855835,0.06135175749659538,0.06818806380033493,0.07502436637878418,0.08186067640781403,0.08869698643684387,0.09553328901529312,0.10236959159374237,0.10920590162277222,0.11604221165180206,0.12287851423025131,0.12971481680870056,0.1365511268377304,0.14338743686676025,0.1502237319946289,0.15706004202365875,0.1638963520526886,0.17073266208171844,0.1775689721107483,0.18440526723861694,0.1912415772676468,0.19807788729667664,0.2049141824245453,0.21175049245357513,0.21858680248260498,0.22542311251163483,0.23225942254066467,0.23909571766853333,0.24593202769756317,0.252768337726593,0.25960463285446167,0.2664409577846527,0.27327725291252136]},"parameters/graph_1bn1.bias":{"bins":[-0.679223895072937,-0.6577161550521851,-0.6362083554267883,-0.6147006154060364,-0.5931928157806396,-0.5716850757598877,-0.5501773357391357,-0.528669536113739,-0.5071617960929871,-0.4856540262699127,-0.4641462564468384,-0.4426385164260864,-0.4211307466030121,-0.39962297677993774,-0.3781152367591858,-0.35660746693611145,-0.3350996971130371,-0.31359192728996277,-0.2920841574668884,-0.2705764174461365,-0.24906864762306213,-0.2275608777999878,-0.20605312287807465,-0.1845453679561615,-0.16303759813308716,-0.14152982831001282,-0.12002207338809967,-0.09851431101560593,-0.07700654864311218,-0.05549878627061844,-0.033991023898124695,-0.012483261525630951,0.009024500846862793,0.030532263219356537,0.05204002559185028,0.07354778796434402,0.09505555033683777,0.11656331270933151,0.13807107508182526,0.1595788300037384,0.18108659982681274,0.20259436964988708,0.22410212457180023,0.24560987949371338,0.2671176493167877,0.28862541913986206,0.310133159160614,0.33164092898368835,0.3531486988067627,0.37465646862983704,0.3961642384529114,0.41767197847366333,0.43917974829673767,0.460687518119812,0.48219525814056396,0.5037030577659607,0.5252107977867126,0.5467185378074646,0.5682263374328613,0.5897340774536133,0.6112418174743652,0.632749617099762,0.6542573571205139,0.6757651567459106,0.6972728967666626],"_type":"histogram","values":[1,1,0,0,1,0,0,0,0,0,1,0,1,1,0,0,0,0,1,0,1,0,0,0,0,0,0,0,0,1,0,9,0,0,0,0,2,1,3,4,2,0,3,6,4,3,2,1,1,1,2,1,2,0,1,1,1,1,1,1,1,0,0,1]},"parameters/graph_1layer2.1.bn2.bias":{"values":[1,1,0,0,0,0,1,1,1,1,0,1,1,0,3,5,1,3,2,2,2,1,5,4,7,4,5,5,7,2,3,5,7,5,4,6,3,1,4,4,2,4,2,2,3,1,0,2,0,0,1,0,1,0,0,1,0,0,0,0,0,0,0,1],"bins":[-0.5485517382621765,-0.5358223915100098,-0.5230931043624878,-0.510363757610321,-0.4976344406604767,-0.48490509390830994,-0.4721757769584656,-0.4594464600086212,-0.44671714305877686,-0.4339877963066101,-0.42125847935676575,-0.4085291624069214,-0.39579981565475464,-0.3830704987049103,-0.3703411817550659,-0.35761183500289917,-0.3448825180530548,-0.33215320110321045,-0.3194238543510437,-0.30669453740119934,-0.293965220451355,-0.28123587369918823,-0.26850655674934387,-0.2557772397994995,-0.24304790794849396,-0.2303185760974884,-0.21758925914764404,-0.2048599272966385,-0.19213059544563293,-0.17940127849578857,-0.16667194664478302,-0.15394262969493866,-0.14121326804161072,-0.12848393619060516,-0.1157546192407608,-0.10302528738975525,-0.09029596298933029,-0.07756663858890533,-0.06483730673789978,-0.05210798233747482,-0.039378657937049866,-0.02664933167397976,-0.013920005410909653,-0.0011906791478395462,0.01153864711523056,0.024267973378300667,0.03699729964137077,0.04972662776708603,0.062455952167510986,0.07518527656793594,0.0879146009683609,0.10064393281936646,0.11337325721979141,0.12610258162021637,0.13883191347122192,0.15156123042106628,0.16429056227207184,0.1770198941230774,0.18974921107292175,0.2024785429239273,0.21520787477493286,0.22793719172477722,0.24066652357578278,0.25339585542678833,0.2661251723766327],"_type":"histogram"},"parameters/graph_1layer4.0.bn2.bias":{"_type":"histogram","values":[1,0,1,0,0,3,3,3,2,6,0,5,5,8,9,14,6,7,18,8,19,16,12,26,25,36,19,41,38,30,25,18,24,18,6,11,10,4,10,2,4,4,2,1,2,2,1,0,0,0,1,0,0,1,0,0,1,1,1,0,0,1,0,1],"bins":[-0.42620593309402466,-0.4182634949684143,-0.41032108664512634,-0.402378648519516,-0.394436240196228,-0.3864938020706177,-0.3785513937473297,-0.37060895562171936,-0.3626665472984314,-0.35472410917282104,-0.3467817008495331,-0.33883926272392273,-0.33089685440063477,-0.3229544162750244,-0.31501200795173645,-0.3070695698261261,-0.29912716150283813,-0.2911847233772278,-0.28324228525161743,-0.27529987692832947,-0.2673574388027191,-0.25941503047943115,-0.2514725923538208,-0.24353018403053284,-0.23558774590492249,-0.22764532268047333,-0.21970289945602417,-0.211760476231575,-0.20381805300712585,-0.1958756297826767,-0.18793320655822754,-0.17999078333377838,-0.17204833030700684,-0.16410590708255768,-0.15616348385810852,-0.14822106063365936,-0.1402786374092102,-0.13233621418476105,-0.12439379096031189,-0.11645136773586273,-0.10850894451141357,-0.10056652128696442,-0.09262409806251526,-0.0846816748380661,-0.07673925161361694,-0.06879682093858719,-0.06085439771413803,-0.05291197448968887,-0.044969551265239716,-0.03702712804079056,-0.02908470295369625,-0.021142277866601944,-0.013199854642152786,-0.005257430486381054,0.0026849936693906784,0.01062741782516241,0.018569841980934143,0.0265122652053833,0.03445468842983246,0.042397115379571915,0.05033953860402107,0.05828196182847023,0.06622438877820969,0.07416681200265884,0.082109235227108]},"parameters/graph_1layer4.1.bn2.weight":{"bins":[1.6179957389831543,1.6308878660202026,1.6437798738479614,1.6566720008850098,1.6695640087127686,1.682456135749817,1.6953482627868652,1.708240270614624,1.7211323976516724,1.7340244054794312,1.7469165325164795,1.7598086595535278,1.7727006673812866,1.785592794418335,1.7984848022460938,1.811376929283142,1.8242690563201904,1.8371610641479492,1.8500531911849976,1.8629451990127563,1.8758373260498047,1.8887293338775635,1.9016214609146118,1.9145135879516602,1.927405595779419,1.9402977228164673,1.953189730644226,1.9660818576812744,1.9789739847183228,1.9918659925460815,2.00475811958313,2.0176501274108887,2.0305423736572266,2.0434343814849854,2.056326389312744,2.069218397140503,2.082110643386841,2.0950026512145996,2.1078946590423584,2.1207869052886963,2.133678913116455,2.146570920944214,2.1594629287719727,2.1723551750183105,2.1852471828460693,2.198139190673828,2.211031436920166,2.223923444747925,2.2368154525756836,2.2497076988220215,2.2625997066497803,2.275491714477539,2.288383722305298,2.3012759685516357,2.3141679763793945,2.3270599842071533,2.339952230453491,2.35284423828125,2.365736246109009,2.3786284923553467,2.3915205001831055,2.4044125080108643,2.417304515838623,2.430196762084961,2.4430887699127197],"_type":"histogram","values":[2,1,3,3,1,1,2,4,14,10,14,18,23,21,32,18,24,26,36,24,25,28,29,21,15,15,20,13,13,14,4,4,5,4,3,4,2,3,1,0,0,1,1,0,1,3,0,1,0,1,0,0,1,0,0,0,0,1,1,0,0,0,0,1]},"parameters/graph_1layer3.0.conv2.weight":{"_type":"histogram","values":[1,1,0,0,2,3,7,4,4,9,12,14,17,20,34,52,71,74,130,170,283,486,832,1456,2840,5438,10591,19525,33982,52692,71809,85508,86524,75184,56108,36737,21682,12190,6602,3390,2019,1116,763,439,307,181,157,74,69,53,40,25,19,15,23,11,11,4,7,2,2,1,1,1],"bins":[-0.34864649176597595,-0.3378370702266693,-0.3270276188850403,-0.31621819734573364,-0.305408775806427,-0.294599324464798,-0.28378990292549133,-0.2729804515838623,-0.26217103004455566,-0.251361608505249,-0.24055215716362,-0.22974273562431335,-0.21893329918384552,-0.20812386274337769,-0.19731444120407104,-0.1865050047636032,-0.17569556832313538,-0.16488613188266754,-0.1540766954421997,-0.14326727390289307,-0.13245783746242523,-0.1216484010219574,-0.11083897203207016,-0.10002954304218292,-0.08922010660171509,-0.07841067016124725,-0.06760124117136002,-0.05679180845618248,-0.045982375741004944,-0.03517294302582741,-0.024363510310649872,-0.013554077595472336,-0.002744615077972412,0.008064817637205124,0.01887425035238266,0.029683683067560196,0.04049311578273773,0.05130254849791527,0.062111981213092804,0.07292141020298004,0.08373084664344788,0.09454028308391571,0.10534971207380295,0.11615914106369019,0.12696857750415802,0.13777801394462585,0.1485874354839325,0.15939687192440033,0.17020630836486816,0.181015744805336,0.19182518124580383,0.20263460278511047,0.2134440392255783,0.22425347566604614,0.23506289720535278,0.24587233364582062,0.25668177008628845,0.2674911916255951,0.2783006429672241,0.28911006450653076,0.2999194860458374,0.31072893738746643,0.32153835892677307,0.3323478102684021,0.34315723180770874]},"parameters/graph_1layer2.0.conv1.weight":{"_type":"histogram","values":[1,1,3,2,2,3,9,7,11,9,22,18,37,47,50,69,91,101,164,227,326,469,600,857,1190,1703,2575,3682,5330,7044,8683,9118,8294,6855,4938,3540,2280,1528,1101,772,558,355,290,197,142,107,76,55,42,34,20,20,15,12,8,12,4,3,8,4,4,1,1,1],"bins":[-0.33598971366882324,-0.32535243034362793,-0.3147151470184326,-0.3040778636932373,-0.293440580368042,-0.2828032970428467,-0.27216601371765137,-0.26152873039245605,-0.25089144706726074,-0.24025414884090424,-0.22961686551570892,-0.2189795821905136,-0.2083422839641571,-0.1977050006389618,-0.18706771731376648,-0.17643043398857117,-0.16579315066337585,-0.15515586733818054,-0.14451858401298523,-0.13388130068778992,-0.12324400991201401,-0.1126067265868187,-0.10196943581104279,-0.09133215248584747,-0.08069486916065216,-0.07005758583545685,-0.05942029878497124,-0.048783011734485626,-0.038145728409290314,-0.027508443221449852,-0.01687115803360939,-0.0062338728457689285,0.004403412342071533,0.015040697529911995,0.025677982717752457,0.03631526976823807,0.04695255309343338,0.05758983641862869,0.0682271271944046,0.07886441051959991,0.08950169384479523,0.10013897716999054,0.11077626049518585,0.12141355127096176,0.13205084204673767,0.14268812537193298,0.1533254086971283,0.1639626920223236,0.17459997534751892,0.18523725867271423,0.19587454199790955,0.20651182532310486,0.21714910864830017,0.22778640687465668,0.238423690199852,0.2490609735250473,0.2596982717514038,0.2703355550765991,0.28097283840179443,0.29161012172698975,0.30224740505218506,0.31288468837738037,0.3235219717025757,0.334159255027771,0.3447965383529663]},"parameters/graph_1layer2.1.conv2.weight":{"_type":"histogram","values":[1,0,0,0,1,1,1,1,2,2,5,10,4,12,17,37,61,58,107,164,295,525,921,1653,2876,4960,8013,12369,16974,20247,21086,18669,14358,9666,6013,3490,2037,1146,678,393,217,131,90,49,32,29,17,14,8,2,6,2,2,2,1,0,0,0,0,0,0,0,0,1],"bins":[-0.3495562672615051,-0.3380769193172455,-0.32659757137298584,-0.3151182234287262,-0.30363887548446655,-0.2921595573425293,-0.28068020939826965,-0.26920086145401,-0.25772151350975037,-0.24624216556549072,-0.23476281762123108,-0.22328348457813263,-0.21180413663387299,-0.20032478868961334,-0.1888454556465149,-0.17736610770225525,-0.1658867597579956,-0.15440741181373596,-0.14292806386947632,-0.13144873082637787,-0.11996938288211823,-0.10849003493785858,-0.09701069444417953,-0.08553135395050049,-0.07405200600624084,-0.0625726580619812,-0.051093317568302155,-0.03961397334933281,-0.028134629130363464,-0.01665528491139412,-0.005175940692424774,0.006303403526544571,0.01778271794319153,0.029262062162160873,0.04074140638113022,0.052220750600099564,0.06370009481906891,0.07517944276332855,0.0866587832570076,0.09813812375068665,0.10961747169494629,0.12109681963920593,0.13257616758346558,0.14405550062656403,0.15553484857082367,0.1670141965150833,0.17849352955818176,0.1899728775024414,0.20145222544670105,0.2129315733909607,0.22441092133522034,0.2358902543783188,0.24736960232257843,0.2588489353656769,0.2703282833099365,0.28180763125419617,0.2932869791984558,0.30476632714271545,0.3162456750869751,0.32772502303123474,0.3392043709754944,0.35068368911743164,0.3621630370616913,0.3736423850059509,0.38512173295021057]},"parameters/graph_1layer3.0.bn1.weight":{"bins":[0.17438893020153046,0.17938265204429626,0.18437637388706207,0.18937009572982788,0.19436383247375488,0.1993575543165207,0.2043512761592865,0.2093449980020523,0.21433871984481812,0.21933244168758392,0.22432616353034973,0.22931988537311554,0.23431360721588135,0.23930734395980835,0.24430106580257416,0.24929478764533997,0.2542884945869446,0.2592822313308716,0.2642759680747986,0.2692696750164032,0.2742634117603302,0.2792571187019348,0.2842508554458618,0.28924456238746643,0.29423829913139343,0.29923203587532043,0.30422574281692505,0.30921947956085205,0.31421318650245667,0.31920692324638367,0.3242006301879883,0.3291943669319153,0.3341881036758423,0.3391818404197693,0.3441755473613739,0.3491692841053009,0.3541629910469055,0.3591567277908325,0.36415043473243713,0.36914417147636414,0.37413787841796875,0.37913161516189575,0.38412535190582275,0.38911905884742737,0.39411279559135437,0.399106502532959,0.404100239276886,0.4090939462184906,0.4140876829624176,0.4190814197063446,0.4240751266479492,0.4290688633918762,0.43406257033348083,0.43905630707740784,0.44405001401901245,0.44904375076293945,0.45403748750686646,0.45903119444847107,0.46402493119239807,0.4690186381340027,0.4740123748779297,0.4790060818195343,0.4839998185634613,0.4889935255050659,0.4939872622489929],"_type":"histogram","values":[1,0,0,0,1,0,0,1,3,2,3,3,3,6,4,5,9,12,4,11,10,9,8,8,12,11,7,7,16,5,11,11,12,7,10,4,5,8,5,3,4,3,5,1,0,1,1,0,1,1,0,0,0,0,0,0,1,0,0,0,0,0,0,1]},"parameters/graph_1layer3.1.conv1.weight":{"values":[1,0,0,1,1,2,0,2,0,3,4,11,8,10,13,22,25,24,49,77,120,188,308,503,992,1876,3562,7215,13767,24764,41695,62304,80602,89714,83689,67134,46138,28465,16432,8963,4690,2692,1489,828,478,328,188,126,86,76,42,36,14,17,12,7,10,4,4,6,3,3,0,1],"bins":[-0.33732128143310547,-0.32737618684768677,-0.31743109226226807,-0.30748599767684937,-0.29754090309143066,-0.28759583830833435,-0.27765074372291565,-0.26770564913749695,-0.25776055455207825,-0.24781545996665955,-0.23787036538124084,-0.22792528569698334,-0.21798019111156464,-0.20803509652614594,-0.19809001684188843,-0.18814492225646973,-0.17819982767105103,-0.16825473308563232,-0.15830963850021362,-0.14836455881595612,-0.13841946423053741,-0.1284743696451187,-0.11852928251028061,-0.1085841953754425,-0.0986391007900238,-0.0886940062046051,-0.078748919069767,-0.0688038319349289,-0.05885873734951019,-0.04891364648938179,-0.03896855562925339,-0.029023464769124985,-0.019078373908996582,-0.00913328304886818,0.0008118078112602234,0.010756898671388626,0.02070198953151703,0.03064708039164543,0.040592171251773834,0.05053726211190224,0.06048235297203064,0.07042744755744934,0.08037253469228745,0.09031762182712555,0.10026271641254425,0.11020781099796295,0.12015289813280106,0.13009798526763916,0.14004307985305786,0.14998817443847656,0.15993326902389526,0.16987834870815277,0.17982344329357147,0.18976853787899017,0.19971361756324768,0.20965871214866638,0.21960380673408508,0.22954890131950378,0.23949399590492249,0.24943907558918,0.2593841552734375,0.2693292498588562,0.2792743444442749,0.2892194390296936,0.2991645336151123],"_type":"histogram"},"parameters/graph_1layer1.0.conv2.weight":{"bins":[-0.5045934319496155,-0.49225616455078125,-0.479918897151947,-0.4675815999507904,-0.4552443325519562,-0.44290706515312195,-0.43056976795196533,-0.4182325005531311,-0.4058952331542969,-0.39355796575546265,-0.3812206983566284,-0.3688834011554718,-0.3565461337566376,-0.34420886635780334,-0.33187156915664673,-0.3195343017578125,-0.30719703435897827,-0.29485976696014404,-0.2825224995613098,-0.2701852023601532,-0.25784793496131897,-0.24551066756248474,-0.23317338526248932,-0.2208361029624939,-0.20849883556365967,-0.19616156816482544,-0.18382428586483002,-0.1714870035648346,-0.15914973616600037,-0.14681246876716614,-0.13447518646717072,-0.12213791161775589,-0.10980063676834106,-0.09746336191892624,-0.08512608706951141,-0.07278881222009659,-0.06045153737068176,-0.04811426252126694,-0.03577698767185211,-0.023439712822437286,-0.011102437973022461,0.0012348368763923645,0.01357211172580719,0.025909386575222015,0.03824666142463684,0.050583936274051666,0.06292121112346649,0.07525848597288132,0.08759576082229614,0.09993303567171097,0.1122703105211258,0.12460758537054062,0.13694486021995544,0.14928212761878967,0.1616194099187851,0.17395669221878052,0.18629395961761475,0.19863122701644897,0.2109685093164444,0.22330579161643982,0.23564305901527405,0.24798032641410828,0.2603176236152649,0.2726548910140991,0.28499215841293335],"_type":"histogram","values":[1,0,1,0,0,0,0,1,0,1,1,2,1,1,1,2,1,4,3,9,2,12,10,20,22,31,40,49,82,105,152,227,316,435,659,987,1435,2230,3199,4189,4752,4836,3927,3019,1980,1306,924,552,436,262,177,118,101,65,48,37,21,19,14,12,10,7,9,1]},"parameters/graph_1fc.bias":{"values":[1,0,0,0,0,0,0,0,0,0,0,0,0,0,0,1,0,0,0,0,1,0,0,0,0,0,0,0,0,0,0,0,1,0,0,0,0,0,1,0,0,0,0,0,1,1,0,0,0,0,0,0,0,1,0,0,0,0,0,0,0,0,1,1],"bins":[-0.03135662525892258,-0.03014190122485161,-0.02892717905342579,-0.02771245501935482,-0.026497732847929,-0.025283008813858032,-0.024068284779787064,-0.022853562608361244,-0.021638838574290276,-0.020424114540219307,-0.019209392368793488,-0.01799466833472252,-0.01677994430065155,-0.015565222129225731,-0.014350498095154762,-0.013135774992406368,-0.011921051889657974,-0.01070632878690958,-0.009491605684161186,-0.008276881650090218,-0.007062158547341824,-0.0058474354445934296,-0.004632711876183748,-0.0034179885406047106,-0.002203265205025673,-0.0009885418694466352,0.00022618146613240242,0.00144090480171144,0.0026556281372904778,0.0038703514728695154,0.005085074808448553,0.006299798376858234,0.007514521479606628,0.008729244582355022,0.009943967685103416,0.011158691719174385,0.012373414821922779,0.013588137924671173,0.014802861958742142,0.01601758413016796,0.01723230816423893,0.0184470321983099,0.019661754369735718,0.020876478403806686,0.022091202437877655,0.023305924609303474,0.024520648643374443,0.025735370814800262,0.02695009484887123,0.0281648188829422,0.02937954105436802,0.030594265088438988,0.03180898725986481,0.033023711293935776,0.034238435328006744,0.03545315936207771,0.03666788339614868,0.03788260370492935,0.03909732773900032,0.04031205177307129,0.04152677580714226,0.042741499841213226,0.043956220149993896,0.045170944184064865,0.046385668218135834],"_type":"histogram"},"parameters/graph_1layer3.1.bn2.weight":{"bins":[0.010001697577536106,0.019847603514790535,0.02969351038336754,0.03953941538929939,0.04938532039523125,0.0592312291264534,0.06907713413238525,0.07892303913831711,0.08876894414424896,0.09861484915018082,0.10846075415611267,0.11830666661262512,0.12815256416797638,0.13799847662448883,0.1478443741798401,0.15769028663635254,0.167536199092865,0.17738209664821625,0.1872280091047287,0.19707390666007996,0.2069198191165924,0.21676571667194366,0.22661162912845612,0.23645752668380737,0.24630343914031982,0.2561493515968323,0.2659952640533447,0.2758411467075348,0.28568705916404724,0.2955329716205597,0.30537888407707214,0.3152247667312622,0.32507070899009705,0.3349166214466095,0.34476253390312195,0.354608416557312,0.36445432901382446,0.3743002414703369,0.38414615392684937,0.39399203658103943,0.4038379490375519,0.41368386149406433,0.4235297739505768,0.43337568640708923,0.4432215690612793,0.45306748151779175,0.4629133939743042,0.47275930643081665,0.4826052188873291,0.49245110154151917,0.502297043800354,0.5121428966522217,0.5219888091087341,0.5318347215652466,0.541680634021759,0.5515265464782715,0.5613724589347839,0.5712183713912964,0.5810642838478088,0.5909101963043213,0.600756049156189,0.6106019616127014,0.6204478740692139,0.6302937865257263,0.6401396989822388],"_type":"histogram","values":[4,2,7,3,4,11,7,6,6,10,4,4,5,4,11,9,12,9,7,9,6,5,8,12,6,9,3,2,4,5,5,4,5,4,2,7,3,2,2,3,6,2,0,0,0,1,0,1,2,3,1,1,2,0,2,0,0,1,1,1,0,0,0,1]},"parameters/graph_1layer3.0.bn2.weight":{"bins":[0.15324364602565765,0.1615595668554306,0.16987550258636475,0.1781914234161377,0.18650734424591064,0.1948232799768448,0.20313920080661774,0.21145512163639069,0.21977105736732483,0.22808697819709778,0.23640289902687073,0.24471881985664368,0.2530347406864166,0.26135069131851196,0.2696666121482849,0.27798253297805786,0.2862984538078308,0.29461437463760376,0.3029302954673767,0.31124621629714966,0.319562166929245,0.32787808775901794,0.3361940085887909,0.34450992941856384,0.3528258502483368,0.36114177107810974,0.3694577217102051,0.377773642539978,0.386089563369751,0.3944054841995239,0.4027214050292969,0.4110373258590698,0.41935327649116516,0.4276691973209381,0.43598511815071106,0.444301038980484,0.45261698961257935,0.4609329104423523,0.46924883127212524,0.4775647521018982,0.48588067293167114,0.4941965937614441,0.502512514591217,0.51082843542099,0.5191443562507629,0.5274603366851807,0.5357762575149536,0.5440921783447266,0.5524080991744995,0.5607240200042725,0.5690399408340454,0.5773558616638184,0.5856717824935913,0.5939877033233643,0.6023036241531372,0.6106195449829102,0.6189354658126831,0.627251386642456,0.6355673670768738,0.6438832879066467,0.6521992087364197,0.6605151295661926,0.6688310503959656,0.6771469712257385,0.6854628920555115],"_type":"histogram","values":[1,2,2,4,1,4,6,5,5,5,8,9,10,8,10,9,12,13,9,15,11,13,6,4,10,7,6,2,4,8,8,4,5,5,3,2,5,3,1,1,0,3,3,0,0,0,1,0,0,1,0,0,0,0,0,0,0,0,0,0,0,0,1,1]},"parameters/graph_1layer2.0.downsample.0.weight":{"_type":"histogram","values":[1,0,0,0,0,0,0,0,0,1,2,1,4,2,3,3,8,7,7,13,16,19,19,31,29,61,114,176,355,632,1146,1755,1584,1055,506,282,114,74,45,39,23,13,14,9,5,4,6,1,4,5,1,1,0,0,1,0,0,0,0,0,0,0,0,1],"bins":[-0.7787034511566162,-0.7543059587478638,-0.7299084663391113,-0.7055109739303589,-0.6811134815216064,-0.656715989112854,-0.6323184967041016,-0.6079210042953491,-0.5835235118865967,-0.559126079082489,-0.5347285866737366,-0.5103310942649841,-0.4859336018562317,-0.46153610944747925,-0.4371386170387268,-0.41274112462997437,-0.3883436322212219,-0.3639461398124695,-0.33954864740371704,-0.3151511549949646,-0.29075366258621216,-0.2663561999797821,-0.24195870757102966,-0.21756121516227722,-0.19316372275352478,-0.16876623034477234,-0.1443687379360199,-0.11997126042842865,-0.09557376801967621,-0.07117627561092377,-0.04677879065275192,-0.02238130196928978,0.0020161867141723633,0.026413675397634506,0.05081116408109665,0.0752086490392685,0.09960614144802094,0.12400363385677338,0.14840111136436462,0.17279860377311707,0.1971960961818695,0.22159358859062195,0.2459910809993744,0.27038857340812683,0.2947860360145569,0.3191835284233093,0.34358102083206177,0.3679785132408142,0.39237600564956665,0.4167734980583191,0.44117099046707153,0.465568482875824,0.4899659752845764,0.5143634676933289,0.5387609601020813,0.5631584525108337,0.5875558853149414,0.6119533777236938,0.6363508701324463,0.6607483625411987,0.6851458549499512,0.7095433473587036,0.733940839767456,0.7583383321762085,0.7827358245849609]},"parameters/graph_1layer2.0.downsample.1.bias":{"_type":"histogram","values":[1,0,0,1,0,0,0,0,0,0,0,1,1,0,1,0,1,1,1,0,3,0,2,2,1,3,1,1,6,3,1,0,4,4,8,0,2,3,2,4,4,2,4,1,3,5,3,4,5,9,3,0,1,3,3,4,2,2,2,2,3,3,0,2],"bins":[-0.30793923139572144,-0.3009326159954071,-0.2939260005950928,-0.28691935539245605,-0.2799127399921417,-0.2729061245918274,-0.2658994793891907,-0.25889286398887634,-0.251886248588562,-0.24487963318824768,-0.23787300288677216,-0.23086637258529663,-0.2238597571849823,-0.21685314178466797,-0.20984651148319244,-0.20283988118171692,-0.1958332657814026,-0.18882665038108826,-0.18182002007961273,-0.1748133897781372,-0.16780677437782288,-0.16080015897750854,-0.15379352867603302,-0.1467868983745575,-0.13978028297424316,-0.13277366757392883,-0.1257670372724533,-0.11876041442155838,-0.11175379157066345,-0.10474716871976852,-0.0977405458688736,-0.09073392301797867,-0.08372731506824493,-0.07672069221735,-0.06971406936645508,-0.06270744651556015,-0.05570082366466522,-0.048694200813770294,-0.041687577962875366,-0.03468095511198044,-0.02767433226108551,-0.020667709410190582,-0.013661086559295654,-0.006654463708400726,0.00035215914249420166,0.00735878199338913,0.014365404844284058,0.021372027695178986,0.028378650546073914,0.03538527339696884,0.04239189624786377,0.0493985190987587,0.056405141949653625,0.06341176480054855,0.07041838765144348,0.07742501050233841,0.08443163335323334,0.09143825620412827,0.0984448790550232,0.10545150190591812,0.11245812475681305,0.11946474760770798,0.1264713704586029,0.13347798585891724,0.14048461616039276]},"parameters/graph_1layer1.0.bn1.weight":{"bins":[0.156365767121315,0.16421689093112946,0.1720680296421051,0.17991915345191956,0.187770277261734,0.19562141597270966,0.2034725397825241,0.21132367849349976,0.2191748023033142,0.22702592611312866,0.2348770648241043,0.24272818863391876,0.2505793273448944,0.25843045115470886,0.2662815749645233,0.27413269877433777,0.2819838523864746,0.28983497619628906,0.2976861000061035,0.30553722381591797,0.3133883476257324,0.3212394714355469,0.3290906250476837,0.33694174885749817,0.3447928726673126,0.3526439964771271,0.36049512028694153,0.36834627389907837,0.3761973977088928,0.3840485215187073,0.39189964532852173,0.3997507691383362,0.40760189294815063,0.4154530167579651,0.42330414056777954,0.4311552941799164,0.43900641798973083,0.4468575417995453,0.45470866560935974,0.4625597894191742,0.47041094303131104,0.4782620668411255,0.48611319065093994,0.4939643144607544,0.5018154382705688,0.5096665620803833,0.5175176858901978,0.5253688097000122,0.5332199335098267,0.5410711169242859,0.5489222407341003,0.5567733645439148,0.5646244883537292,0.5724756121635437,0.5803267359733582,0.5881778597831726,0.5960289835929871,0.6038801074028015,0.611731231212616,0.6195824146270752,0.6274335384368896,0.6352846622467041,0.6431357860565186,0.650986909866333,0.6588380336761475],"_type":"histogram","values":[1,0,0,2,1,2,1,1,7,3,0,4,3,2,0,1,2,2,0,3,2,0,3,0,1,0,1,0,1,0,2,0,0,1,0,1,1,1,3,0,2,1,0,0,0,3,0,0,0,0,1,0,2,0,0,0,0,0,0,0,0,0,2,1]}}